0.03209206,0.023820188,-0.029867642,-0.021651883,-0.032218065,0.03358645,-0.003945402,-0.019462952,0.0015224305,0.004868976,0.032710593,0.025190243,0.032362934,0.0017966799,0.033816945,0.02000453,-0.00087495364,-0.026113337,-0.0059016263,-0.03253822,0.035290018,-0.027768554,0.002716239,-0.018817775,-5.329933e-05,0.01506484,0.0023509988,-0.019892817,0.018895078,-0.011684167,-0.013552756,0.032585222,-0.034786668,-0.022995647,-0.032516144,-0.0145866405,-0.00991101,0.02610243,-0.017333997,-0.023716995,0.0295156,-0.014572264,0.035272725,0.0059745614,-0.02100346,-0.028361892,0.010260242,0.02627756,-0.02554748,-0.018700762,0.0038542706,0.012771454,0.014824519,-0.02457813,0.006746382,0.023899991,-0.035255034,-0.004413077,0.024603529,-0.024743665,-0.010497886,-0.02740557,-0.0033146485,0.00022735342,0.024255665,-0.022543112,0.03180368,0.032772925,0.0050644153,0.01026966,0.017014999,0.008094673,-0.02582897,-0.019762658,0.007280929,-0.0013624941,0.015207998,0.018009579,-0.014158684,-0.027364042,0.01821358,-0.02215196,0.0023021656,-0.03485744,0.0070951968,-0.013022113,0.019560836,-0.033501226,-0.011845181,-0.0017940743,-0.014682953,-0.030906687,0.005852278,-0.03476223,0.02836267,0.012208683,-0.024702244,0.0023078069,-0.03223919,0.025888657,-0.01551165,-0.031368416,-0.014248155,0.021654798,0.0019495743,-0.0063468176,0.017879248,-0.00040381722,-0.013023199,-0.0065966253,0.003909418,0.009314967,-0.0113981115,-0.0060391133,0.009027171,0.012526513,0.0060635083,0.0061657857,0.03315334,-0.0039001023,-0.033647627,0.0005751252,-0.022825237,-0.0052332156,0.015318552,-0.022634605,0.01854577,-0.033790547,0.01610272,0.005490201,-0.016748626,-0.0118665015,-0.029182985,0.009409606,0.019435786,-0.035099573,0.035545,-0.007959809,0.012600201,-0.014834609,0.02098647,-0.018054921,-0.023242963,0.0038915023,-0.01624709,0.007986542,0.0031634315,0.015067514,0.0329536,-0.004824877,0.033990003,-0.01657014,-0.015490268,-0.0170198,0.029132571,0.012164253,0.009071035,0.003249739,-0.00614142,-0.030409291,-0.029122278,-0.020523276,0.0022259143,0.021888359,0.0017073283,-0.029752946,0.011682111,0.0031454607,-0.025739076,0.014036541,0.017451644,-0.029386334,-0.009194332,-0.014066969,-0.021626307,0.024783101,-0.030755993,-0.00038556542,0.005444216,-0.004870547,-0.014591609,-0.021988163,0.03158804,-0.0230233,-0.015166812,-0.016336728,0.017530242,0.022779984,-0.0075541185,-0.015762934,0.012151804,0.01068667,0.0019364485,0.015617214,-0.023839386,-0.019742485,-0.0037280577,-0.03542759,-0.017217219,-0.022628207,0.005256321,-0.014724498,-0.02914456,-0.035363324,0.034665562,-0.016803589,0.01392156,0.009484798,-0.025197413,0.013116462,-0.011144247,0.026420148,0.011343667,0.004722178,0.0055943304,0.023149168,-0.030356217,-0.022400146,0.009580413,0.0027975994,-0.01070422,0.00066147535,-0.015112201,0.024662457,-0.008287567,0.009420067,0.025743421,-0.022590894,0.0034646734,-0.027890602,0.02594908,-0.017412085,-0.00806568,0.025607817,0.005132122,0.0025883531,-0.01432725,-0.011678684,0.034323778,-0.013204303,0.014456081,-0.027194684,-0.010107739,-0.02597032,-0.028463885,-0.0034567672,-0.027912453,-0.025556438,-0.031534266,0.008306904,-0.026868477,0.034905702,-0.008134514,-0.031315632,0.003293361,0.006205542,0.008319843,-0.021085633,0.010805062,-0.015597017,0.00017222764,-0.00344666,0.026529403,0.0007913964,0.0028032407,0.013604778,-0.0061947876,0.024966104,0.02149507,-0.024048189,0.01959436,0.0037720418,0.019407779,-0.017045189,-0.014353276,0.023483034,-0.02942291,0.019334203,0.03502316,-0.03029803,0.018499887,-0.022910004,-0.03004975,-0.02080745,-0.006193246,-0.03037288,0.02719362,0.017734056,-0.02623863,0.010350049,-0.028817127,-0.0020407652,-0.020117905,-0.0104324315,-0.024332281,-0.02865012,-0.02883698,0.026616229,-0.029417325,-0.019934207,-0.018571455,-0.016985012,0.033204854,-0.018467475,0.013189444,-0.027285095,0.011661125,0.025705837,-0.021006398,0.020981926,-0.0012721036,-0.0015020542,-0.014087562,0.029086744,0.0034062224,0.018745508,-0.035275146,0.0031307,0.015274142,-0.018022725,0.021922018,-0.015721522,-0.032950904,-0.0014876596,-0.0064607817,-0.0106508825,0.023367835,0.01709492,0.033212375,-0.016644781,-0.028057743,-0.024125602,0.019740041,0.007023867,-0.015374716,0.027252534,0.023809817,0.029512908,0.026699089,0.031158457,-0.030681297,0.004355082,-0.030447442,0.035185225,0.027432805,0.0053079003,-0.0016104622,-0.0038637521,-0.008037146,-0.005483121,-0.010732775,-0.0034876766,-0.0051469253,0.034039937,-0.013994592,-0.0033353483,0.032113925,0.010216428,-0.029182546,-0.009097112,-0.023599502,0.035564024,0.009397456,-0.029846743,0.023239737,-0.003698992,-0.013299377,-0.014188746,-0.007113921,-0.027907271,0.033347934,-0.035628006,-0.029917765,0.011788407,0.0083141755,0.02451185,0.016779674,-0.002434011,0.034411415,-0.00648539,-0.01445904,-0.0045211273,0.012868507,-0.0264471,0.0056453776,-0.02361185,-0.024251305,-0.016425457,0.020591669,-0.014687275,-0.01539029,-0.01661132,-0.012449605,-0.017473187,-0.018033523,-0.0046047866,0.026976999,0.014189895,-0.007896483,-0.027707871,0.027250376,-0.025009356,-0.0003860082,0.0122218095,-0.008526909,0.021073496,0.033861972,-0.00458106,0.029236617,-0.016532738,-0.007357108,-0.009255912,-0.006446213,-0.014178021,0.002259561,0.0009909911,-0.0035823968,-0.010510322,-0.009966804,-0.016789032,0.000313265,-0.0023677307,-0.0020293766,0.01887136,-0.019429147,-0.008277604,-0.0045009344,-0.0065752952,0.030114666,0.025538156,0.014186464,0.018530702,-0.019059068,0.023981478,-0.0055748397,-0.0035305365,-0.008367888,-0.024286395,0.015863819,0.02435637,0.004511906,0.001097807,0.018352825,-0.018472131,0.015022419,0.003904645,0.0336648,-0.031087711,-0.0038141524,-0.0348086,-0.018649507,-0.019204099,0.025087124,0.010471476,0.0012696981,-0.013585781,0.0040852516,-0.015812313,-0.034701467,-0.016909707,-0.007437519,-0.021982262,0.0041763233,0.031326085,-0.008636935,-0.029056367,0.027428215,0.020247161,-0.023280567,-0.01657024,0.00830446,-0.033495203,-0.032213144,0.014569999,0.023050983,-0.009847224,-0.022030326,0.018124659,0.011836593,-0.019364681,0.02246833,-0.0061914283,-0.02636466,0.0044217454,0.010834784,-0.019308653,-0.0105292415,-0.0027651405,-0.03199465,-0.03508041,0.016415566,-0.03546498,-0.01740297,0.024683822,0.035357963,-0.027897168,0.028272197,0.001236805,-0.023027787,0.017496323,-0.013800362,-0.025572177,-0.031244704,0.021454204,-0.00094109355,0.0037281897,0.0128923915,-0.011065019,0.01690174,-0.006022343,0.014913053,0.013301139,-0.026999539,-0.027563833,0.0010155824,-0.01416071,-0.0065171425,-0.023927238,0.026331192,0.01702697,-0.026054503,-0.028436568,-0.015492653,0.019255674,-0.011830152,-0.006409773,-0.0035603559,0.028670078,-0.011739944,-0.0035475665,0.005291194,-0.023185862,-0.024831884,-0.022077344,0.03455738,0.021186149,0.016469697,0.009202685,-0.010560866,-0.024102183,0.0049118954,-0.022361195,-0.0033364638,0.025702674,0.023896853,0.008896437,0.02298155,0.012793261,-0.023326496,0.015693456,0.006969448,0.010387298,0.030250939,0.0136024365,-0.018794073,-0.027453795,0.03530892,-0.0052424287,-0.033434134,-0.019057048,-0.034917943,0.008045754,0.02865605,0.01072248,-0.002511084,0.02343779,0.020538054,0.033264127,-0.023991663,-0.014967315,0.033956483,0.017083157,-0.029182142,0.033700697,0.004527024,-0.006859822,0.019283457,0.03116664,0.00536974,-0.03245034,-0.010356052,-0.017149318,-0.0011233389,0.007711198,0.0016308513,-0.03299775,-0.008537638,-0.012613902,-0.008768401,0.018294208,-0.035314243,-0.017787267,0.031323083,-0.0027503627,-0.025648655,-0.018096516,-0.0003622898,0.034583103,-0.03316731,-0.002151485,0.011143694,0.022087933,-0.00049034617,-0.03317217,-0.016121512,-0.010068685,0.03312253,-0.017261097,0.009608529,-0.014380481,-0.026953166,0.0334371,0.027239256,-0.02555393,0.00011095831,-0.00505917,0.033283226,0.010830543,-0.018977059,0.032803733,-0.016905462,0.010881028,0.017142225,-0.0266496,0.01562059,0.009328979,0.0014147504,-0.019210493,-0.013724038,0.034663416,-0.031808905,0.03165389,-0.008545761,0.008131146,0.002648507,0.01872259,-0.0118781505,0.0065253424,0.007132343,-2.4506026e-05,0.021088619,0.034619495,0.008695177,-0.03266584,-0.0028607377,0.027528087,-0.0027712968,0.021624822,-0.024723476,0.02172586,-0.0076344227,-0.022616575,-0.035044625,-0.011633593,-0.004801227,0.019003136,-0.01687184,-0.03391467,0.02452174,-0.01778844,0.024940526,0.020759065,0.0171786,-0.024063699,0.03406816,-0.021674413,-0.013991961,0.021848131,0.011646246,0.01117545,-0.02806988,0.022159956,-0.018711427,-0.020875169,0.0053826575,0.0310579,-0.023645665,-0.03331854,0.0040119677,-0.030264596,0.008806097,-0.016346265,-0.025023453,-0.01850697,-0.03429579,0.008851644,0.0065150177,0.018763859,0.009714519,-0.0012626308,0.029093722,-0.01446982,0.029742217,-0.015755374,-0.006191688,0.010771454,0.020744793,0.015076587,0.022138102,0.010469024,-0.0024474775,-0.01617214,-0.01474971,-0.0028486508,0.03091513,-0.00096792413,0.0019250853,0.0051110303,-0.005694117,-0.000112060996,0.035303738,0.006363026,0.004355158,0.017564207,-0.029722806,0.0235902,-0.020897934,0.021358896,0.0010516304,0.023507902,-0.008154729,-0.009755514,-0.0031425783,0.0064436328,-0.021725869,0.0052780597,-0.027673569,0.033295043,0.020130362,-0.01670379,-0.0026832053,-0.029377364,-0.034442842,-0.01915134,-0.034624048,-0.026296658,-0.0016913372,-0.028999956,-0.028032776,-0.033865113,0.01190739,0.0033598628,0.02901364,0.00038371768,0.009549341,-0.024943443,-6.479451e-05,0.019457277,-0.003065399,0.0018387012,0.0010413656,0.005804892,-0.025105963,-0.026555024,0.021561015,-0.029052012,0.02513941,0.018948011,0.015545194,0.014782544,0.004133314,0.028993526,0.0130040655,0.028190413,0.0076787346,-0.024150603,-0.021471519,-0.012049259,0.0345934,0.0009402803,-0.024038265,-0.013551836,0.02369274,-0.021366943,-0.03485449,0.0115785515,-0.03480243,-0.022494836,0.009679211,0.021437462,-0.0071356767,-0.00057143404,0.024202062,0.013486842,0.030368712,-0.017383257,-0.028826918,-0.031160058,0.018380268,-0.025116416,-0.035102274,-0.011249441,-0.023235258,0.02310312,-0.013835763,0.011870998,-0.02884162,0.009749439,-0.031907838,-0.026439382,-0.01621195,-0.03341972,-0.028528295,-0.024497243,-0.03424456,-0.026090989,0.020832978,-0.034367643,0.01824526,0.021295063,-0.017931629,0.0016458546,0.022190938,0.022833128,-0.026755763,-0.004380699,0.03421265,0.03199547,0.008442998,0.0013184207,0.022357048,-0.012492972,-0.008943899,-0.0074908524,0.032754164,0.001039356,-0.033289384,-0.005770675,-0.00787876,-0.006492602,-0.0344011,0.011145235,-0.0077531044,0.017710496,0.011348057,-0.020982156,0.026756467,-0.035037037,-0.019793553,-0.015497421,-0.031395175,0.030440098,0.007839007,-0.0017968715,-0.008271162,-0.023509018,8.250986e-06,-0.0017425376,-0.020105487,-0.0334083,-0.011536765,0.027411003,0.01660339,0.029935097,0.0010328549,-0.017391512,-0.027410977,-0.0342149,0.01663751,0.010405928,0.03380264,-0.023714883,-0.010701964,0.028901216,-0.007258607,0.021898832,-0.016469147,-0.0024868634,-0.029511692,-0.033857476,-0.002228158,0.002608759,0.013427365,0.0026131275,-0.029316822,-0.02264556,0.011048888,0.033455618,-0.0034578913,-0.023083398,-0.01659977,0.00848662,0.017148381,-0.032729812,0.00849342,-0.006768095,-0.024077537,-0.014262426,0.008207309,-0.028768664,0.0051290095,-0.01309423,-0.0037014442,-0.012309084,-0.0021494287,-0.018470675,-0.028086403,0.021605024,-0.01429881,-0.018886209,0.029965058,-0.017086413,-0.012183318,-0.008343612,0.004578054,-0.032898623,0.014119217,0.03231461,0.015650103,-0.0029785847,-0.030444738,0.0051918076,0.005120307,-0.0013446809,0.022050234,-0.005267595,0.003922752,-0.019554246,0.03144413,0.006931846,0.01624813,-0.0063657123,-0.01741532,-0.010373925,-0.0051650153,-0.0018535471,0.024266308,0.014082824,0.015146699,0.022256108,-0.007835261,-0.0031105834,-0.017037861,-0.033202305,0.033297114,-0.017639404,-0.017584499,0.019748216,-0.012327399,-0.0014524418,-0.017855365,0.013517657,0.011925021,0.023498485,-0.014139112,-0.023791488,-0.028938653,0.004548086,0.029142156,0.0113932835,0.015886882,-0.00042062148,0.011952869,0.026798436,-0.0077428482,0.002579076,0.025372468,-0.007876184,0.0019481566,-0.035503455,0.025498958,-0.02908642,0.033394363,0.0062438594,0.026394343,-0.0095990775,0.010683554,0.025388915,-0.0044381707,-0.033822045,0.023908876,-0.0006315836,0.012305627,0.023452066,0.01085797,-0.022000318,0.030198924,-0.0071125375,-0.004704216,-0.03463169,0.033540778,-0.025928285,0.035662908,-0.035464566,0.008523056,0.03059819,0.020098997,-0.008038444,-0.00050738885,0.010440329,-0.028728435,0.020904286,0.022877537,0.024817085,-0.032130104,0.027471893,0.009999505,0.021241201,-0.026186846,0.0062200855,0.013474176,0.012552415,-0.011519344,0.0088655185,-0.008144158,-0.021651562,-0.029759886,-0.018089104,-0.031822883,0.005894261,0.003272972,0.017916,0.03332983,0.03438066,-0.026027761,0.023604555,0.0053271824,0.030557549,0.01822306,0.032755088,0.011313541,0.006066327,0.011801784,0.01873079,0.00669169,-0.023059258,0.033545148,0.01562572,0.010436327,-0.016406903,0.028720852,0.03133379,0.034939792,-0.028419062,-0.030274943,0.023800816,-0.021315074,0.014391691,-0.009805931,0.0013356976,0.0053116255,0.015321362,-0.025313403,0.01082491,-0.01408987,0.0036585077,-0.0073158788,-0.0015119953,-0.006456584,0.017341567,0.0055702333,-0.020835068,0.0072104894,0.013113955,0.03534239,0.018272975,0.027658558,-0.00017911622,0.017682996,-0.018482912,0.014338784,-0.011991446,-0.010650865,-0.027529202,0.012121665,0.0082630515,-0.0081061125,0.03382218,0.011308032,-0.01493773,-0.03469664,0.025064077,0.0055314177,0.026744308,0.026508112,0.003478127,-0.03416814,-0.032293953,0.02136575,0.00843989,-0.008369161,0.012068263,-0.022103693,-0.031165963,0.0036302593,0.021456797,-0.03220926,0.020888483,0.01908141,0.027300857,0.0017667414,-0.029395973,-0.006448806,0.025479836,0.029679738,0.030746594,-0.008843014,-0.0035621142,-0.031359818,-0.016591512,-0.01870287,0.021434372,0.033528384,-0.015872508,0.029595003,-0.031443816,-0.028694645,0.009743768,-0.013173508,0.030995753,-0.029722517,0.026035186,0.002758635,-0.031729568,0.012366725,0.0012988065,-0.02952759,0.02353452,0.0076467698,-0.009582273,-0.0029863077,-0.0041602044,-0.015493738,-0.00205771,-0.012294847,0.018029239,0.004424504,0.017956935,0.020589063,0.014142642,0.013490461,0.023079434,-0.02213551,-0.011455324,0.03415143,0.01802702,-0.010767209,0.029065121,0.00074724643,0.0086545525,0.03231605,-0.0047579706,0.018779939,-0.02580854,0.010372984,0.03177249,-0.004927303,0.030584622,-0.010109565,0.03188234,0.012812985,-0.034527466,-0.008410348,0.013612594,0.03445926,-0.00804641,0.0103788255,0.032610796,-0.017623723,-0.030783003,-0.015992647,0.010593159,0.03196793,-0.017724847,0.011132679,-0.00084638176,-0.03547395,0.0002502118,-0.03563954,-0.019169658,0.0006508913,-0.028211484,0.028091244,-0.017839067,0.006461476,0.009906497,-0.030105086,0.030468337,-0.030829806,0.029984616,0.009945968,0.016506433,0.029745534,-0.020351863,-0.035335608,-0.021331223,-0.02180728,0.013842004,0.027320033,-0.017921947,0.032565653,-0.0042138654,-0.011780795,-0.023831837,-0.0037927758,0.027819166,-0.0025502443,0.0014153634,0.0020244974,-0.034034602,-0.004089347,0.00571457,-0.026721666,0.0071529364,0.010939045,-0.019290052,-0.0049317013,-0.019177247,-0.033168357,-0.035133533,0.025278067,0.008793993,-0.012995721,-0.03499032,-0.009012419,-0.035058435,0.013715081,-0.014315926,0.009362494,-0.028964031,0.011207257,0.026512394,-0.02420065,0.002121189,0.033157036,0.013823067,0.00046077374,0.033068474,0.035132043,0.01606978,0.008748016,-0.030300027,0.007836155,0.025457686,0.034909915,-0.0008734635,-0.014879581,0.017057845,0.0012820278,-0.014306959,-0.025089746,-7.1900235e-05,0.035059776,0.008832979,-0.01243803,0.005078818,-0.033332627,-0.011935732,0.018088449,-0.019272132,-0.02541047,0.017967362,-0.015029751,-0.018396731,0.023518482,0.029006815,-0.0038171369,0.032209028,-0.03087351,-0.002992464,0.01669679,-0.030043885,-0.026442388,-0.029405609,0.02510824,-0.008162644,-0.033847164,0.03480123,0.030741531,-0.0014916701,0.01247676,-0.005337349,-0.027306907,0.016120695,-0.025342686,0.0050114393,-1.7204457e-05,0.0124584995,-0.0009773204,-0.02879836,0.010660091,0.035589486,0.032733943,-0.013141339,0.015435632,-0.00723795,-0.025095383,-0.033442624,-0.017321635,-0.0019846857,-0.015931811,0.032461964,0.0052958475,0.02751809,-0.014296515,0.026304523,-0.019477194,-0.007735836,0.01711123,0.0032837137,0.012020082,0.009651134,0.0027069324,0.007075706,0.0051046954,-0.035577204,-0.0033530083,0.0035701694,-0.013379646,0.006307683,-0.02387244,-0.010247197,-0.03521305,0.03041976,-0.017147074,0.0018924135,0.009928589,0.0023746365,-0.030088818,-0.031491913,-0.034605056,-0.01195854,-0.014468853,0.0022250586,0.0040633255,0.020398328,0.0064567076,0.008946794,-0.02992419,-0.008246865,0.0032281324,-0.021830002,-0.032601234,0.026598565,-0.03158158,0.030513557,-0.031052293,-0.027283218,0.0324647,0.017322864,-0.0018658468,0.031145459,0.020153886,-0.019801868,-0.01373137,-0.033339348,-0.014581259,0.01007574,7.630672e-05,0.013826273,-0.025888134,0.022206614,0.03238385,-0.011409751,0.004776725,-0.02527785,0.0023700767,-0.024322456,-0.034317892,-0.009070426,0.010992536,-0.019351926,-0.009411936,0.023183236,0.0244279,-0.008701295,-0.009435147,-0.0094424235,-0.024630854,0.012632302,0.018075574,0.0051387595,-0.02122252,0.015451547,0.030346531,0.0054975837,-0.0015561326,0.017569045,-0.014759171,-0.023356605,0.031076172,-0.015499818,-0.01554628,0.013548349,-0.025214205,0.03356319,0.019726008,0.026440557,-0.025295684,0.02764668,-0.020843694,-0.027458921,0.03278481,-0.0052419608,0.0063583087,-0.030033262,-0.011568475,0.02195596,-0.012504092,-0.024358345,-0.004777044,-0.025419082,0.015242058,-0.03403922,-0.03398819,0.019331183,0.01956804,-0.0145094525,0.020137925,-0.023345651,-0.0046095126,-0.01017651,-0.012154362,-0.0016754143,0.007057684,-0.0054397755,0.024220813,-0.017170763,0.0345123,0.030894447,0.0029655057,-0.015526857,-0.031590715,-0.0034463408,0.011067906,-0.013827384,0.0107799815,0.0060647135,-0.015482175,-0.016169077,0.009651802,-0.00067099504,0.03306066,-0.023740195,-0.014721863,-0.008495165,-0.01101585,0.008058352,0.01425928,0.0040278733,0.020840978,0.024153152,0.031195816,-0.0270229,0.004761811,-0.011882042,0.0076927505,0.010686096,-0.027978264,-0.0038951212,0.008442918,0.028536133,-0.027316682,0.031189192,-0.027976085,-0.030849684,0.032145955,-0.011508363,0.033462014,0.033871423,0.0357088,0.02065926,0.020039253,0.021765208,-0.03189768,0.023946669,0.00826653,-0.028323064,-0.008985805,-0.0016913926,0.00088320463,0.008448746,-0.0011239563,-0.022555927,0.01642036,-0.0013989083,-0.011950557,0.0034088495,-0.014798616,-0.0027161625,-0.009746531,-0.030897418,-0.012445749,-0.035442322,-0.033148926,0.02533287,0.033851676,0.030966308,0.012181568,-5.3099226e-05,0.027350474,0.030732134,-0.03019761,-0.00065000996,0.022031197,-0.032744512,0.00022071601,0.019944813,-0.019137107,-0.025941106,0.029239766,-0.004098071,0.025011098,-0.015355656,0.019839663,0.024861349,-0.015260858,-0.008756395,-0.029819941,-0.02753223,0.025976127,-0.022967977,-0.012045929,0.0101096295,0.027484538,-0.0023275018,0.012094881,-0.023289379,0.013810899,-0.013101531,0.0049471175,-0.027704662,-0.030227296,0.03139953,-0.021718465,-0.0005814135,-0.027299847,-0.021757552,-0.019395238,0.02686515,0.028407745,0.005216522,-0.01504148,-0.015273006,0.03319036,-0.015941136,0.0317431,-0.023144903,-0.008634597,-0.033459075,-0.003329026,0.010419974,0.024177773,0.009379719,0.0018846521,0.009152894,-0.029787268,-0.01015799,-0.018904364,0.02144528,0.01975264,0.026482617,0.018144974,-0.0037938657,-0.016821709,-0.0006876205,0.011561948,0.03349297,0.022001637,0.025647689,0.0077244984,0.010718951,0.017080326,0.022646794,0.024694325,0.032577254,-0.016696174,-0.0014024718,0.021633571,0.010704088,0.016224274,-0.018217165,0.024187597,0.017291794,0.021923466,0.030155499,-0.013740284,-0.031075258,0.02216292,0.013772765,0.01650138,0.018341742,-0.02197809,0.001734244,-0.028463067,-0.030386407,0.016138593,-0.00079055346,0.0023355826,0.0028378284,0.008237022,0.015655471,-0.011985979,-0.021974696,-0.030285168,-0.003574329,-0.0002784048,-0.015615281,0.032088064,-0.012915114,0.016755143,-0.03189645,0.03561998,-0.015524137,0.027687078,0.030970434,0.03165668,0.020807166,-0.03135254,-0.00217399,0.024198188,0.033917677,0.031095374,-0.022901507,0.019159913,0.010291079,-0.023253364,-0.011578816,-0.03440378,0.021467112,0.003668696,-0.013220618,-0.002645612,0.007515133,0.028573625,0.01996891,0.035445802,-0.016973637,0.026010208,0.00583988,-0.01296123,-0.017022729,-0.0071014212,0.011557141,0.010600797,0.017564379,-0.032887142,0.024819473,-0.013966974,0.030108815,-0.009563557,-0.02335349,-0.028418368,-0.009796169,0.00398211,-0.025233027,0.028298192,-0.02539622,0.030864738,0.019798344,0.032514002,-0.030555254,-0.026420709,0.016538348,0.034212466,0.0016398984,-0.0019350734,0.033650547,-0.034602456,0.016160518,0.0025638088,-0.028102608,-0.009933404,0.016637603,0.027627017,0.02393342,0.012154648,0.0020738756,0.0077990764,0.0046027433,0.03285231,0.013389958,0.019669563,-0.0250579,-0.015352203,0.01988085,-0.024126496,-0.027949633,-0.0077667665,-0.03479665,0.017105214,-0.034807242,0.005868678,0.0024755343,-0.011783273,-0.009400862,-0.02598591,0.032540184,0.0015615949,-0.008355984,0.02434855,0.018966753,0.033755716,0.030611172,0.016442824,0.013699771,-0.019172065,-0.03493307,-0.007773996,-0.009755267,0.035632487,-0.02258152,-0.029960608,-0.02225138,0.026083253,0.0015317756,-0.01977898,-0.020851936,-0.005199569,0.017094,-0.026615603,-0.012289873,0.0052184677,0.019816859,0.029498642,-0.022213425,-0.03308268,0.0149299465,0.014968421,0.011272397,-0.03297305,0.03519823,-0.03276105,0.013309253,0.004389214,-0.02106298,0.0018179503,-0.013931262,-0.027474621,-0.030493643,-0.009008783,-0.017297937,0.004840817,0.03164974,0.0071027493,-0.011916327,0.0042226315,0.035107225,0.025250819,-0.0215484,-0.0073615443,-0.00058279297,-0.010472847,0.002110179,-0.016740203,0.009523069,0.021624085,0.03244102,-0.02631027,0.0072501563,-0.009535223,-0.026275763,-0.00032746795,-0.007935737,0.022439694,0.010649545,-0.017888552,0.012160561,0.027977724,0.027880969,0.030169416,0.03468554,0.0064881104,-0.0063764327,-0.025641732,-0.00037266954,-0.020759549,-0.035361856,-0.02302513,-0.011495532,-0.007637254,-0.030441161,-0.013514238,0.022607557,-0.03391943,-0.025525937,0.004245758,-0.03305992,-0.03315667,-0.032569654,0.009670777,-0.027473392,-0.0043698465,-0.004257058,-0.03515704,-0.029593447,0.01352481,-0.029423038,0.024881117,-0.009182398,-0.017029142,-0.0022102809,0.0356025,-0.005819798,0.030507054,0.0075955098,-0.0058855927,-0.030823193,0.025258517,0.011916097,-0.010281261,0.025980389,-0.015582669,0.020064866,-0.021677874,0.023056371,-0.008563992,-0.031302452,0.027363587,0.0022680887,0.018367112,-0.009597796,-0.033490058,0.012917127,-0.03127432,0.021238955,-0.029994242,0.0032054868,0.015143778,0.030636694,0.012759597,0.020721488,0.010968004,-0.018069787,-0.033382166,-0.01332309,0.024610963,-0.026935361,0.020351078,-0.022311093,0.015727721,-0.008618108,0.02508408,-0.023824455,-0.034182094,0.0028575787,0.012960098,0.028924296,0.009594619,-0.034066886,-0.010408568,-0.031786945,0.010708401,-0.02075906,-0.02065092,-0.030274525,-0.005753343,-0.03465106,-0.032703143,-0.010604353,0.027996168,0.005083238,0.0046181595,0.012467955,0.0068011247,0.02152411,-0.007494548,0.027619231,-0.021661343,-0.034383044,-0.0229634,0.02583767,-0.026114725,-0.0022435957,-0.020775191,-0.005386357,0.011991885,-0.029028008,-0.018719941,0.0030132788,-0.025463166,0.034671523,-0.020472234,-0.020814348,0.029288996,-0.02714388,0.0033968731,0.00026632633,-0.035526585,-0.004650691,-0.00066718465,0.0006814344,0.019689394,-0.023066437,-0.03027536,-0.027749786,0.00317743,-0.019288827,0.030948605,0.02936793,0.0010410122,0.010041505,-0.011844517,-0.011672778,0.0067863255,-0.018741464,0.002646408,-0.004325752,0.020859273,-0.0039826888,-0.032950897,0.023844639,0.0025418147,0.03458942,0.034652997,-0.00074929855,-0.018629858,0.021727223,-0.016363323,0.032498516,-0.023261238,0.034544047,0.034953177,0.0066331713,0.020132313,-0.027017446,0.001562306,0.014396051,-0.017429179,-0.02973165,-0.025814867,0.018451815,-0.0036571368,0.010393045,-0.0057422435,0.010533036,0.033536963,0.00367627,0.021316415,0.026257342,-0.03364422,-0.027006797,0.00978168,-6.423678e-05,0.029153574,0.017213298,0.0134002445,-0.0059824632,-0.030056478,-0.007347154,0.02183288,-0.003923787,0.03157264,-0.033091046,0.022059722,-0.01526283,0.032226693,-0.0017714076,0.031893805,0.0018288877,0.03076687,-0.020295,-0.026870763,-0.012682924,-0.031353664,0.022055516,-0.005108842,-0.010035366,-0.025807854,0.018743366,-0.011366794,-0.023660524,0.02468509,0.025578193,0.021931339,0.024840225,0.028403023,0.023605147,-0.023779057,0.030176722,0.022318276,0.021778513,-0.0034159168,-0.012352122,-0.017795509,0.020866212,-0.006887743,-0.004905505,-0.035513766,-0.018306583,-0.03314169,0.012464268,0.0198699,-0.020183116,0.026660524,0.023482503,0.031187523,-0.0058492767,0.009316883,0.0023674667,0.03264111,-0.022768162,-0.0011834162,-0.016837014,0.027283201,0.012774179,0.027355842,-0.00975912,0.013093463,0.025340589,0.001438622,-0.02593102,-0.017565101,0.028670883,-0.026797956,0.015354408,-0.035657384,-0.008751291,-0.030080983,0.012541057,-0.0075784926,0.0026650005,0.032334536,-0.023210825,0.02334887,0.0024859055,-0.010658895,-0.0079006,-0.017326066,-0.001180155,0.0063133584,-0.030590888,0.012746842,0.027816603,-0.03051302,0.02853779,-0.031736236,0.03275363,0.015548323,-0.019871602,-0.020790718,0.0016161801,-0.015653394,-0.027555492,0.012617665,-0.018798906,-0.008095299,-0.008004296,0.0052137207,-0.017232185,0.021413242,-0.02786379,-0.032949768,-0.035413638,-0.014978874,-0.0016229068,0.03551577,0.03514548,0.0208047,0.028862827,-0.026675733,-0.020211557,0.011645433,-0.02030339,0.035244413,0.012463915,-0.018868614,-0.027986737,-0.032593362,0.022155132,-0.014519309,0.0011841102,-0.011080091,0.027928,-0.021459717,0.012181423,-0.03445324,0.024821278,0.026954226,0.0069581955,-0.012995878,-0.0010194439,-0.015659027,0.019839717,0.019983748,-0.02410018,-0.0015008749,-0.025186809,-0.002754812,-0.035173453,-0.02033217,-0.008616303,-0.029857734,-0.018591737,0.027754286,0.026298132,0.022444846,0.028148273,0.027137391,0.032356728,0.031121008,0.03286172,0.00049107417,0.028800782,0.019532472,0.022501666,0.027642801,0.020735776,-0.0009370745,0.0006998735,-0.008529305,0.033154286,-0.033212405,0.030298457,0.023436526,-0.011727389,0.012146277,0.02877236,-0.0022787794,-0.0054410785,0.034346204,0.03259441,-0.010180044,-0.02783543,0.035147447,-0.03570499,0.002196359,0.021636773,-0.0124804,0.03064484,-0.0028434184,-0.0031677359,0.03519808,-0.0030088767,0.022411024,-0.004770654,-0.018312467,-0.017778423,-0.019756502,-0.0239323,0.018375466,-0.03141404,0.02935288,-0.01101731,0.019720465,0.023298912,-0.01892491,-0.0046796375,0.00426292,-0.028129146,-0.028246459,0.034180127,0.02159194,-0.003907025,0.021318385,-0.023357142,0.030716762,0.015835725,0.01256959,-0.035383083,0.0006505762,0.027015215,0.006228115,-0.018132398,-0.021791471,-0.001458198,0.012948382,0.033886563,-0.015178387,0.024497502,-0.016737394,0.028846193,0.010018579,0.03087995,-0.016383985,0.029183278,-0.0011913095,0.0040067565,0.0050581694,0.018719984,-0.012963793,-0.034832954,0.021367662,-0.028111847,-0.017332917,0.024986167,-0.02392823,-0.013547962,-0.031102825,-0.01248149,-0.035484172,0.034722887,-0.027333478,-0.019214798,-0.012909438,-0.033205412,-0.011276514,0.018130206,-0.031673886,-0.017932305,-0.0016326436,0.0017759332,-0.0066929036,-0.033891786,0.030216517,-0.025779469,-0.025704104,0.0072060656,-0.021851059,0.011282964,0.022321565,0.02524248,-0.029719371,0.024268871,0.022336276,0.017752346,0.021787206,-0.024540497,0.026827507,0.022034777,0.0056056767,-0.014546518,0.03424892,-0.008881718,-0.0008803564,0.010911453,0.01237828,0.025828524,0.022561394,-0.021560764,-0.015113529,-0.034463733,0.011307938,-0.013641971,0.029474827,0.0022953749,-0.0046615647,-0.013568649,-0.015481945,0.0018922773,-0.002167953,0.02141673,-0.028354296,-0.02606381,0.015443185,-0.03359142,-0.023291491,0.0026828947,0.014080968,-0.016120056,-0.022740727,0.015447808,0.0015326355,-0.022137733,0.030300304,-0.0008869555,-0.01850236,0.0017143489,-0.03442707,-0.008738011,0.014748995,0.010371911,-0.03116005,-0.028261816,-0.0014053158,-0.0059480327,-0.031932734,-0.023686316,0.021339038,0.029771175,-0.013020069,0.010457444,0.014964522,0.024448754,0.004354724,-0.010848182,0.024762828,-0.028993897,0.01769633,-0.0016343978,0.019569546,-0.01050033,0.025791492,-0.016120022,0.001379375,-0.00037033643,-0.012938943,-0.014611194,-0.003841545,0.021069992,-0.0004204214,-0.007426799,-0.014519841,0.030272562,-0.017883493,-0.016835835,-0.011173432,-0.010373423,0.0011029541,0.03247325,0.018439395,-0.01205541,0.032674965,-0.0018489489,-0.027441874,-0.0047475784,0.024353646,0.024954205,0.03241087,-0.02879947,0.027417095,0.0124729965,0.035355527,0.012130461,-0.02691803,0.017288443,0.0139482245,0.0034216985,-0.029097375,0.029998759,0.008704642,-0.027529927,-0.023114372,-0.020197814,0.024807727,0.026706506,-0.025013473,0.0083614085,0.014958659,0.0033923006,0.02159894,0.018671382,0.0030771112,0.0038481953,-0.009122244,0.0097896205,-0.028854094,0.020215249,-0.0323662,-0.0073851775,0.029457605,-0.028047614,-0.0027148214,-0.027097426,0.011497694,-0.011987014,0.0042196214,-0.023679292,-0.014535883,-0.017715821,0.03193734,0.021391274,0.013268348,0.035522427,0.034320604,-0.029928515,-0.028418347,0.013543134,-0.033439137,0.024223393,-0.017390303,0.01756216,-0.023394687,-0.011568649,-0.019691719,-0.0018751877,-0.02220363,-0.012575389,0.01747011,-0.012521949,-0.008280073,0.013570922,0.007821649,0.00517895,-0.035394724,0.004544786,0.027199257,-0.022971155,0.013094476,0.00990192,-0.018477691,-0.008148572,0.004677777,-0.03211362,-0.002354111,-0.014379132,0.020712454,-0.028206844,0.014626746,0.0061659603,-0.022371927,0.02936394,0.019628905,0.018627547,0.00022796649,-0.01672352,0.016515,0.018180758,0.03434058,0.013431073,0.0072673135,0.020220498,-0.024580445,0.0072962902,0.005372848,0.014461876,-0.008959128,-0.020291338,-0.015483372,-0.00803532,-0.008058544,0.011937113,0.025495062,0.013586211,-0.012161962,-0.016579216,0.003480805,-0.016535653,-0.012525351,-0.009874029,-0.015108037,-0.027665379,-0.011347273,-0.020443883,0.022073112,-0.0021346894,0.03181933,-0.0002861236,-0.02875418,-0.0119578205,-0.023291955,0.016603896,-0.024812797,0.00513781,0.002446992,-0.034414846,0.01903689,-0.026636364,0.017849177,-0.018967003,0.01651738,-0.007541529,0.02669599,-0.00043750237,-0.016465796,0.026439842,0.02213029,0.026920006,-0.024591822,0.013881956,-0.010231644,0.029159594,0.03287384,-0.011460266,0.03219698,0.0015270455,0.0046140086,0.02630121,-0.0101906955,0.0032771784,-0.009581643,-0.028992858,-0.02501083,0.01709626,0.011212652,0.0161094,0.03341338,0.017660107,-0.023229409,0.009806842,0.024340149,-0.027465869,0.018493462,0.033622492,-0.028823748,0.024856253,0.006181781,-0.009936056,0.0021542269,-0.00084262236,0.011105151,0.014695096,0.026666531,0.03510286,-0.012599877,0.010185013,0.009590183,0.031960107,0.016418053,-0.030498948,-0.0028820934,0.00020159569,0.030151326,0.019092552,0.018486714,0.013658132,0.010310067,0.012321124,-0.019979436,0.01824603,0.03095222,-0.013543589,-0.031348825,0.0075522577,-0.013020856,-0.025807595,-0.0039933966,-0.0043081897,0.020537067,-0.012459023,-0.008889723,-0.02657618,-0.033849645,-0.0107049225,-0.021949535,0.016522238,0.017280605,-0.0145476805,-0.004665545,-0.029215967,-0.02646208,-0.026592983,-0.0024648139,0.019023556,-0.016763365,-0.030854946,-0.034834497,-0.035418622,0.027218709,-0.0308489,-0.029704079,0.030038998,-0.030271519,0.015369241,0.00056289777,-0.0042216694,0.022021614,0.0075805318,-0.0017035732,-0.02491034,-0.025140163,0.034659527,-0.009391675,-0.0077101504,-0.021654049,0.018595828,-0.0032177442,-0.016919851,0.011587621,0.02584159,-0.027796721,-0.00044180243,-0.0006520578,-0.011783792,0.026652226,-0.020188166,0.033814054,0.015362855,-0.010701151,0.0009351118,-0.010041621,-0.007251557,0.02729183,-0.016935272,0.0057669454,0.004941821,-0.021466529,-0.016407538,-0.020062992,-0.006174637,-0.012318513,-0.02181866,0.022674289,-0.025083449,-0.03212427,-0.00877001,-0.016546626,-0.025059743,-0.009469186,-0.028008778,-0.008735193,0.012469497,0.0037807014,-0.002050268,0.03511087,0.03147803,0.008365189,0.009082752,0.027815267,-0.018282589,-0.013302829,0.00089004217,-0.019016385,0.015691902,-0.031410992,-0.004443233,-0.011843929,-0.03520883,-0.033158213,0.011866455,-0.012314563,0.00805851,-0.006633495,0.007594986,0.030792847,-0.0027952367,-0.020138256,-0.019253144,0.02037249,0.00708847,0.012116821,0.010631392,0.024468891,0.027925007,-0.028902456,-0.030367333,-0.021991216,0.026005188,0.018968668,0.034764685,0.006682439,0.004132356,-0.0090240035,-0.0067257546,-0.004073224,-0.012550589,0.011662356,0.0037125307,0.018837905,0.023698213,-0.007381678,-0.0036773726,0.02764522,0.007085315,-0.031060174,0.000635492,0.03495213,-0.022691919,-0.033985443,-0.021765327,0.014267335,-0.004576321,-0.013695675,-0.023141619,0.004149301,-0.023402961,0.03038106,0.034645565,-0.029022418,0.0016016109,-0.006986431,0.027602103,0.0044704676,-0.019994497,-0.011663011,-0.0069086724,0.011472162,-0.0051599955,-0.016952604,-0.014943384,0.004251808,0.0041227895,0.013423103,-0.020935873,-0.020600252,0.030774748,0.002842533,0.029582476,0.02373346,0.024822254,0.0029995996,0.005459343,-0.03422868,0.03339414,0.001589822,0.03302441,0.010964978,0.03518011,-0.00184255,0.030652042,-0.021657264,0.033113994,-0.029740054,-0.025335265,0.019894559,0.016124927,0.029580977,0.0051190257,-0.02397898,0.024281707,-0.023094816,0.005243519,-0.026394466,0.035147898,-0.016091757,0.023440417,0.033986997,0.03285797,0.011130091,-0.012116582,-0.030301359,-0.0039162594,-0.01710226,-0.013963368,-0.021500964,-0.019530434,-0.031844094,-0.017897168,-0.014848429,0.014524741,-0.015849484,0.009627049,-0.026213685,-0.009441057,0.009923348,0.005602381,0.0042474996,-0.006750452,-0.034551937,0.0062222313,0.032155156,-0.007658133,-0.005190462,0.025749715,0.014463247,0.022727018,0.0033144697,0.02322943,-0.0002628863,-0.013967646,-0.026716944,0.021278132,0.004708712,0.022937933,-0.025958156,0.009705893,0.03449416,0.03266116,0.020991297,-0.0036009722,0.0123788975,-0.014176829,-0.03530626,0.03225068,-0.029889265,0.0174618,0.002928636,-0.030063098,-0.03150864,0.024902893,-0.029839667,-0.022864027,0.0352475,-0.012795219,-0.010800136,0.0250239,-0.033338927,-0.01779846,0.010436488,-0.008177732,0.021591034,-0.004613157,0.003539094,-0.019018928,-0.02510744,-0.025528343,0.0107411025,-0.029345157,-0.03439518,0.03372828,-0.006592776,-0.013642946,0.03490816,0.022298338,0.00063203066,-0.033224583,-0.021053473,0.016505837,-0.008459283,-0.007561382,0.013381077,-0.028328689,0.024707539,0.011176071,-0.011977098,0.028879657,0.030457731,-0.0024283403,-0.029637214,-0.005983685,-0.03167023,0.03549768,0.0033440846,0.011986558,0.02447102,-0.024901697,-0.022612786,0.031062946,0.021532072,0.008936363,-0.0084500825,0.019527474,0.010896164,-0.018220901,0.016314678,0.012165223,-0.0026887658,-0.030571785,0.0024592495,-0.009186375,0.0014187311,-0.012549026,0.01090172,-0.015003252,0.02859647,0.006304426,-0.015910618,-0.020026455,0.0033362552,0.009723123,0.027211877,-0.026516225,-0.015208568,-0.0028607335,-0.006205291,-0.014470548,-0.017619628,-0.03143846,-0.018515809,0.007863586,0.01536541,0.018325849,-0.03463309,0.024705356,-0.016922615,0.03336956,0.021588156,0.0075998395,0.00036172784,0.018112311,0.026018936,-0.008301821,-0.0065469276,0.017379714,-0.0048760306,0.026520351,-0.015527274,-0.014961818,-0.015075011,-0.02484953,0.014968277,0.027237957,0.015294391,-0.028320977,-0.017021146,0.031073602,-0.030932888,0.021082288,0.021694334,-0.008915348,-0.023922406,0.028852422,0.035711568,0.005870134,-0.00013551969,-0.032505203,-0.0142874895,-0.025329476,0.020447059,-0.00055929594,-0.022300934,-0.0019751661,0.005719977,0.027784064,0.0015928362,-0.035340324,-0.0013928713,-0.02679636,-0.0070638703,0.008270166,-0.013486275,-0.026606616,0.0057155024,0.002929134,0.015116075,0.029040368,0.00027702964,-0.02163927,0.034090724,0.016877448,0.0009881216,-0.008702934,-0.016158152,0.002262584,-0.0089756595,-0.015954325,0.01380654,-0.00987371,-0.01499501,0.031657305,0.015594398,-0.030016074,0.018571015,-0.02680653,-0.034573536,-0.010297772,0.024876984,-0.016459981,-0.010732349,0.013727683,-0.0016732472,-0.026333235,0.009288201,0.033543862,-0.009220856,0.020503007,-0.024210475,0.009066233,0.02854811,-0.027017735,0.017301185,0.026988449,-0.012225458,0.017088652,0.0266477,-0.0006591848,-0.030621763,0.031418413,-0.029619563,-0.03568296,-0.0064173173,-0.023571981,-0.031138124,0.00072963326,-0.008711109,-0.03121713,0.034436714,0.024661513,-0.0015378637,0.027535947,0.019783307,-0.0048583793,-0.005644211,0.030723156,-0.011475572,-0.007535292,-0.026812973,-0.0040418506,-0.026686393,-0.033944268,-0.00940801,-0.0117346905,0.017006172,0.004978938,0.0050566196,0.014848871,-0.011637927,-0.02184016,0.016475435,0.028924113,0.013930202,0.012636292,0.025163554,-0.004298883,0.0063535105,0.03460302,-0.028820278,0.021173662,0.0038694697,0.0021639382,-0.033019044,-0.015163363,-0.014872666,0.006187035,0.010311446,-0.011418377,-0.004587655,0.031214276,-0.028080426,-0.012120119,0.006329162,-0.0023606974,-0.014290405,-0.027141398,0.0028172222,-0.0008818976,0.030465784,0.009423537,0.027674323,-0.030508414,-0.03503988,0.00131467,-0.018940514,0.0143219065,-0.011722556,-0.034906488,0.0072566997,0.017500836,0.011538838,-0.029716795,-0.032092657,0.0023648953,-0.013472038,0.029140852,-0.011981386,-0.032684416,-0.031440444,-0.02307012,0.008160804,0.016648173,-0.013075812,0.005099961,0.03362006,0.018597383,0.022441609,0.018771535,-0.032259986,-0.0076956837,-0.03272444,0.007274692,-0.023360547,0.0073134606,-0.012238422,0.021525558,0.01710168,-0.005280997,-0.01962821,0.0039175707,-0.024441797,0.005947603,-0.0025544083,0.0055733877,0.0045861434,0.025541626,-0.031548966,0.027832024,0.019871116,-0.003389214,-0.001995551,0.026695976,0.030654231,-0.00922668,-0.031236446,-0.022266056,-0.004736747,0.013277221,-0.026998704,-0.03562387,-0.023426253,0.00012270894,-0.00548066,0.005109093,0.00911381,0.033884097,-0.019390112,-0.032943487,-0.03540577,0.0031377121,-0.02099715,0.027086932,0.026932636,-0.0032298055,-0.00930827,-0.021884983,-0.006802325,0.0024204766,-0.011244098,-0.0141517185,-0.0016548762,0.035349905,-0.027591731,-0.007521038,0.0048537045,-0.031769555,-0.035066117,-0.034459103,0.014195639,0.009749323,-0.0074705784,0.01644906,-0.0069335066,-0.01766019,0.014258253,0.010109749,0.0136001455,-0.02952629,-0.02740685,0.018627083,-0.0018346353,-0.02492583,-0.017968869,0.01090992,0.025066888,-0.013801405,0.029093437,-0.012724106,0.035057228,0.030291963,0.0061693024,-0.02224439,-0.02435199,0.014441329,-0.0063182544,0.009946453,-0.03279563,-0.030426832,0.023437658,-0.001599942,0.008096713,-0.015371115,-0.024775608,0.0022601017,0.0250276,-0.01189762,-0.020292249,0.013124275,-0.029200092,0.0018844052,0.016328761,0.020878827,0.029725881,0.02205387,-0.005319851,0.0135261975,0.0022953027,-0.033228066,-0.025554769,0.015089096,-0.014708047,0.00523709,-0.01823917,-0.0027783173,0.024242189,0.0346014,-0.017111732,-0.0107973395,-0.016903937,-0.023216786,0.0031103664,0.031815253,-0.01780473,0.014736066,0.029946234,-0.031347286,0.0020854517,-0.03293641,0.031454008,0.002003129,-0.027864303,-0.02595085,0.022014717,-0.0046037734,-0.034491476,0.00970141,-0.03186881,-0.01538814,-0.023001637,-0.0073965704,-0.010454715,0.02358308,0.025699617,0.027219344,-0.0019493019,0.024743183,-0.008522613,-0.009952078,-0.017446732,0.011981245,-0.008063564,-0.009375053,0.020151317,0.032333594,0.0105517125,-0.031755026,0.009693687,0.023619164,0.026768502,0.003883298,0.0026567793,-0.0151167475,-0.028220782,0.00077480933,-0.006492083,-0.0054650395,0.03316631,-0.0110027585,0.0027785217,-0.030938908,0.02459273,0.028189631,-0.017669214,0.031734813,0.034611102,0.019174606,-0.032902207,-0.0045151967,0.03392463,-0.032975566,-0.022805287,0.023681905,-0.008805331,-0.001115386,0.03317952,-0.0059120147,0.029052379,-0.008569616,0.019306947,-0.02959381,0.02896832,-0.005170652,0.007121525,-0.0237741,-0.017427854,0.003333556,-0.019937031,0.014731054,-0.010562131,0.007354656,0.006607418,-0.014099203,-0.002658363,-0.031713694,-0.019699944,0.025589926,0.03306939,-0.032469764,-0.00018577065,-0.011556421,-0.030547097,0.0057406174,0.03298315,0.004323981,0.018157631,-0.004793759,0.022990722,0.015898049,-0.024957146,0.030071195,-0.0053929775,0.02740955,-0.0071568494,0.013597821,0.019365264,-0.029365852,-0.014433797,-0.016044404,0.012849855,0.0036921587,0.0026070818,0.0030491012,0.009452692,-0.01815465,0.014220187,0.0047310465,-0.002009775,0.030769102,0.034512233,0.015486399,-0.0048152553,-0.035632133,-0.008768725,-0.02283649,-0.031771533,0.034929473,0.01321848,0.028498791,0.017710052,-0.009655863,-0.0343206,0.019912887,0.0015091386,-0.005580566,0.029052839,0.0025501677,-0.031440128,0.021157565,0.032135766,0.023255272,0.011511071,0.010695053,0.029280072,0.027059134,0.0053004115,-0.026755441,-0.030450733,0.0284115,-0.017182011,0.033890165,0.024433691,-0.0121955965,-0.014915914,-0.015029077,0.0020081615,-0.0017456712,0.016768886,-0.008382913,-0.034101184,-0.031222936,0.03193591,-0.0065472936,-0.023036098,-0.0041043973,-0.010033548,-0.029798543,0.023058709,0.010222657,-0.008906624,-0.014043664,0.009981718,-0.017751742,0.002921343,0.020564025,-0.0075929635,-0.034334168,0.031629845,0.017922163,0.030575052,0.01197319,-0.0018765671,0.0265857,-0.031402804,-0.0020061433,0.022915028,0.0007305146,-0.01259341,0.012930683,-0.03297159,-0.022477977,-0.015548664,0.024477283,0.0049675875,-0.018223163,0.005576628,0.030198159,-0.0069590216,-0.0030776775,-0.013633085,0.011697105,-0.0062216436,0.02514792,0.0173591,-0.014051966,0.032300036,0.024169775,0.031059936,0.0032585734,0.012028256,-0.015772773,0.01186623,0.0012945576,0.018644594,-0.0039366144,-0.0023436504,-0.031933866,-0.028229209,0.02688867,0.031230085,0.02841913,0.019807179,0.027838644,0.028126765,-0.00021736538,0.033019092,0.02197806,-0.0159254,0.02420125,-0.027151475,0.011936848,-0.019551754,0.026279936,-0.020540899,-0.023713032,-0.018473456,-0.007854479,-0.025193965,0.0028683885,-0.017435726,0.01172767,-0.025969204,0.014355592,0.011018042,-0.0032760545,0.0008825149,0.013394595,-0.025943216,0.0026408562,-0.008073811,0.012505907,0.019843703,-0.03334273,0.026828662,-0.0019372107,0.026856918,0.018060034,0.012498665,-0.01761545,-0.014383973,-0.017907977,0.0138133345,0.03265181,0.0016960801,0.021680322,-0.020509845,-0.010134629,-0.0028401616,0.010104588,0.0064546852,0.02012685,0.01468865,-0.022595568,0.03339042,-0.0038853886,0.029156124,0.03100194,0.034702856,0.011420501,-0.025263758,-0.0076808976,-0.010857881,-0.0038848522,-0.00015911035,0.027573697,0.03540152,0.03449833,-0.0036810425,-0.027658924,-0.03267405,0.0262757,-0.0015304813,0.02063315,0.020564472,-0.019693077,0.024855407,0.012304885,0.0046973145,-0.001921722,-0.028672194,-0.015299432,-0.035092145,0.000800682,-0.02687715,-0.0017602402,0.03510984,0.0030747356,-0.009543351,0.032898117,-0.0054676877,0.019048512,0.006981271,-0.03521497,-0.007006169,0.0043661,0.030740267,-0.006172368,0.0356762,-0.021995805,0.021707153,0.004224522,0.03529929,-0.009616643,-0.028999696,-0.008139777,-0.030774957,0.01820295,0.026090989,-0.01695869,-0.0031817385,-0.029913954,0.03535358,0.033279307,-0.0012553377,0.027298393,-0.013485743,-0.0052423566,0.0023849693,0.008512553,0.026747653,-0.03219439,0.026244024,0.00992285,0.0049505024,-0.020740015,-0.031117832,-0.018676704,-0.01805721,0.025723113,-0.020971777,0.0028768608,0.026177812,0.01938324,0.007167808,-0.009622958,0.0010135983,0.03425361,-0.0109978365,0.003234774,0.009065173,0.012995077,0.033966254,0.00014159083,-0.013576989,0.026508708,-0.003944508,0.023042088,-0.03046379,0.0014330405,-0.014423554,-0.0034791317,0.0129475305,-0.0017106449,-0.015692439,-0.033754937,-0.009071035,0.032898225,0.017359335,0.022412064,-0.0236451,-0.035322428,0.030952621,-0.01841913,0.0022009825,-0.017421348,-0.023244472,-0.013826827,-0.008031189,-0.014313903,0.03373136,0.00046999968,-0.030123541,-0.021161374,-0.009138142,0.02075602,-0.011194038,0.026823219,-0.035257276,0.012882676,0.034362197,-0.014114891,0.006217778,-0.002355712,-0.026100608,0.0027490729,-0.009440107,0.02955434,0.014744253,0.020722475,-0.010388111,0.024288336,0.019391477,0.022372616,0.025445815,0.0021438175,-0.016530616,-0.030739896,-0.0022573345,-0.02017193,-0.020801306,0.0337949,0.013477126,-0.0030410164,-0.00018287983,-0.023122044,0.027131232,-0.013490239,0.015840497,-0.011060945,0.0040440816,-0.00081798865,-0.0203754,0.026881564,0.0012507269,0.025380464,0.013614038,0.03022472,0.025965547,0.03236095,0.010323564,0.00404971,-0.014706684,-0.007895291,0.0044771093,-0.015383594,-0.03491056,0.002089858,-0.0068832682,0.021351436,0.016956776,-0.0084907375,-0.015136046,-0.024187269,-0.033680327,-0.00221622,0.0071201413,-0.027664796,-0.024212612,0.021764003,-0.025002012,0.0027549693,-0.025685621,0.015797114,0.02052933,0.023750046,-1.6199692e-05,-0.021843446,0.015525274,0.0045664143,-0.017615652,0.0106454585,-0.011504353,0.03125778,0.006887534,0.035051562,-0.03309205,-0.021384751,0.0033007776,-0.031892434,-0.0036923971,-0.029662605,0.032911047,0.029829342,0.00779212,-0.0009032148,0.026603257,-0.03266232,-0.026969869,-0.027846452,-0.012077081,-0.02186485,-0.016369723,0.032734297,-0.010762368,-0.023365397,0.012273338,0.0123679815,-0.029834697,-0.011260549,-0.00092761434,-0.021226676,-0.031450476,0.027182665,0.0045251977,0.023854053,-0.0060165017,-0.024723126,0.026182972,-0.022946509,-0.0030354476,-0.004479847,0.017980482,-0.01146463,0.014687164,0.033475477,0.0031465548,-0.016336633,0.020795504,-0.0059264475,0.017468542,-0.003681413,0.005019388,-0.020512654,0.033255886,0.0068221902,0.0033553415,-0.020637883,0.01463289,0.007493445,-0.0007316471,0.029250856,0.017060885,0.015169757,-0.0205322,-0.006733409,-0.0030677447,-0.03560607,0.0086087715,0.03294092,-0.011262188,-0.011127004,-0.00022379417,0.028281562,-0.0013506116,0.03161256,-0.034888424,-0.024829665,-0.027160147,0.003127175,0.031248273,0.018128783,0.022256602,-0.013360578,0.02359617,-0.024176603,-0.019481251,-0.00421834,0.029113166,-0.00080764724,0.026454382,0.005439431,-0.021234347,0.032135624,0.024022926,-0.011456827,-0.031881656,0.007864634,-0.021756373,0.010818852,0.03436438,0.021049134,0.019513858,-0.028533902,0.019160084,-0.03468904,-0.0022118774,-0.035454154,-0.014156384,0.020660251,0.010161358,-0.034146685,-0.012453165,0.007545676,-0.03343553,-0.020131018,0.019044604,-0.010803274,-0.029031053,0.020815957,0.022692533,-0.029609269,-0.030452589,-0.019527892,-0.021769645,0.005522873,0.025913632,0.022390345,-0.02199653,0.0008674605,-0.03446185,0.028288068,0.03442681,0.019178152,-0.0171495,-0.030444773,0.030303152,-0.021516958,0.0350105,0.0050486075,0.001202694,-0.0095889615,-0.0052482574,-0.008804773,-0.01033766,0.026366038,0.006053184,0.0122937355,0.02017361,-0.024151284,-0.03470875,0.012806552,-0.014887117,-0.027331635,-0.003359931,-0.016356282,-0.018676091,-0.032801855,-0.00079658633,-0.0028879049,-0.015781054,-0.005461382,0.0038190358,-0.020664144,0.009621395,0.019811278,0.012837777,-0.031636134,-0.020705556,0.010112137,-0.03525167,-0.028220672,0.0034541958,-0.024487419,-0.014066173,0.023007568,0.016021542,-0.027932027,-0.0054518455,0.008473247,0.031130191,0.017938763,-0.026546236,0.0085518155,-0.028413752,0.029452981,0.035176165,-0.0076871603,-0.009017873,-0.016519811,0.018026762,-0.031164434,-0.029300477,-0.03277843,-0.0092267655,-0.022387924,-0.00022650191,-0.03538267,-0.00036621946,-0.02119213,-0.0024904013,0.033431556,-0.025999509,0.033303972,-0.015682694,-0.005292365,-0.021131206,0.003957144,-0.03357349,-0.026371978,0.012394956,-0.000993899,-0.012861124,-0.026604228,-0.028380718,-0.021514792,-0.0026964291,-0.0077772355,-0.011412132,0.018942276,-0.008061401,0.020317577,0.021656467,0.033641588,0.0056272834,0.021952005,0.019257892,-0.018406881,0.012015424,-0.011089815,0.028154448,0.004032293,-0.029126475,0.028575912,-0.0317583,-0.0017813658,0.027305178,0.023045847,-0.027267747,-0.025026549,-0.0052333646,-0.01749484,0.0055426913,-0.014665757,-0.032061122,0.024322303,-0.023094868,0.014419054,0.014204366,0.03286659,-0.01971001,0.009555894,-0.0038654679,0.007654237,0.013927656,-0.011616405,0.0356339,0.02004761,0.013842039,-0.00036478895,0.008488868,0.011511476,-0.028557392,-0.020854061,0.027410572,0.016474256,0.007984741,-0.011822454,-0.032966875,-0.029291414,0.0072840285,-0.018185182,0.0155303655,0.010800226,0.002462779,-0.032116793,0.031948365,0.016453795,-0.0003699107,0.012900451,0.023618422,0.011873838,0.018578121,-0.0020919316,0.026638897,-0.014685256,0.016662931,-0.02816471,0.03357455,0.0085799275,0.023825055,0.0051738834,-0.031486914,-0.029581705,0.011841587,0.015805492,0.017144524,0.026535146,0.014332933,0.023430042,0.012878721,-0.012165836,0.034174528,-0.023323817,-0.021305514,-0.02736729,-0.008577224,-0.0050077396,0.026268402,-0.0035441052,0.020434879,0.024299521,-0.0303493,-0.010022764,-0.015227561,0.019486321,0.0066952663,-0.002210715,-0.016370127,0.010723485,-0.0048389053,-0.028234368,0.0128869675,0.019601082,-0.028107215,-0.015789498,0.0073377197,-0.002258833,0.0028299734,-0.0119507825,0.015886998,0.02768395,-0.0021527836,-0.019787513,0.020523285,-0.014468811,0.03132493,0.004213278,0.01546512,-0.033305608,-0.0068113212,0.025910975,-0.035636235,-0.014489733,-0.0011755143,-0.022907909,0.0055005043,-0.018581966,0.019337166,0.034197032,0.022676082,0.02684398,-0.02251139,-0.0021763232,0.025209798,0.0057932395,0.015387093,0.019993192,-0.018272031,0.0022850165,0.017816007,0.025687015,-0.027038172,-0.015384768,-0.0008053567,0.0189793,-0.02007823,0.027862057,-0.010223347,0.026815314,0.0043321764,-0.011666801,-0.006543905,0.033529457,-0.024755824,-0.00083324744,-0.0075039696,0.0021904453,0.024837675,0.02683182,-0.025210543,-0.031598747,-0.0017457051,0.00035042423,0.033872396,-0.027759664,0.0010158378,0.022765066,0.034104455,0.024527444,0.004701491,-0.02416776,-0.026724255,-0.004889812,-0.00967609,-0.012831735,0.029191291,0.023407193,-0.033232026,0.0024445015,-0.01036005,0.0030985603,-0.03226297,0.02780145,0.0071621286,0.0024717792,-0.022223057,0.018611053,0.03338015,-0.003977797,-0.02730485,0.031265274,-0.015020699,0.034314256,0.00012313043,-0.003421511,0.03387781,-0.02560975,0.0007135996,0.020407792,0.03305778,0.028973525,-0.015573119,-0.007787522,-0.0010765706,0.004846471,0.0072970777,-0.024420194,-0.0069408123,0.004540916,-0.018463021,0.014722906,-0.023096545,-0.0023071512,0.031042889,0.0073586195,-0.0020494675,-0.0172384,0.033213597,0.02282976,-0.011582465,-0.021102222,0.02923519,0.031300765,0.011949663,-0.0039422214,0.011644671,0.026395569,-0.0056282454,0.0051988494,-0.003202745,-0.03242293,-0.034779444,-0.0034627405,-0.018325917,-0.031698834,-0.027728401,0.0082101915,-0.001759891,0.030212047,0.027174883,-0.012248525,0.019810904,-0.027993344,0.031688362,0.015648583,0.006382087,-0.007946083,-0.031641837,0.005747544,-0.03211222,0.020994235,0.0003889118,-0.004846965,0.014174666,-0.02464109,0.0065630167,-0.030247793,0.008051481,0.006777589,0.013028542,0.023847474,-0.018705923,0.0149966525,0.02130999,0.016407674,0.0019334598,0.019812305,8.949638e-05,0.0070486795,0.0074166916,0.024500873,-0.025095396,0.014709312,-0.021485193,-0.016901579,-0.012491299,-0.026824143,-0.018502837,-0.024654355,-0.017252412,0.033399265,-0.0075439005,-0.006576534,-0.035644814,0.0044904607,0.00641002,0.004042238,-0.029111775,0.023085868,0.0013734784,-0.022308474,0.0040636617,-0.0040587913,-0.02562798,-0.00025050982,-0.009286157,-0.017166585,0.0101460945,0.018325586,-0.0003383458,0.03391432,0.0062064105,-0.011764276,0.0027158603,0.009384062,0.032236625,0.0077178907,0.016381588,0.022487096,0.03459238,0.03565883,0.035511937,-0.0023040858,0.024927963,-0.029448234,-0.024227632,0.00016322733,0.023930194,0.0076571023,-0.031264525,-0.021577053,-0.02804061,0.00038450107,-0.007048322,0.020577788,-0.0018695636,0.0038395568,0.029618988,-0.019024437,-0.031930648,-0.015768206,0.018517166,-0.022919336,-0.03332714,0.011334535,0.021793967,0.034356203,-0.008231853,-0.0051160455,-0.02291255,0.006945219,0.026142808,0.02373744,0.033332195,-0.03453819,0.0065380763,0.0065265386,0.026861908,0.015724827,-0.026420398,-0.03194787,0.0101256585,0.014642917,-0.03472947,-0.01854064,-0.02543099,-0.018790063,0.029686162,0.012350637,0.024316171,0.028689768,-0.033396102,-0.010952542,0.032602858,0.012182823,-0.0051140487,-0.0057267803,0.026039248,-0.01993112,-0.010158995,-0.029497685,-0.0324278,0.020011574,0.026430003,-0.012194438,-0.023889842,-0.00668249,-0.012055309,-0.005890544,-0.018792076,-0.008515826,0.007715038,-0.011182437,-0.0032575259,0.027190665,0.02728273,0.035169438,0.028190836,0.014396422,0.017876962,-0.021565361,-0.00096757076,-0.006218025,0.0075744223,0.009797543,-0.02608221,0.028296575,-0.032132227,0.009186992,0.03320211,0.0021057385,0.0055183857,0.008203051,0.0041897427,0.031731553,-0.026894039,-0.028185211,-0.013087239,-0.0041951328,0.021369394,0.022309951,-0.008251408,-0.015210114,0.0305424,0.0018580514,-0.033255182,0.012390959,-0.0312081,-0.0114914905,-0.02847526,-0.028653895,0.0020928895,0.012823297,0.031244913,0.02365012,0.017080568,0.0024496445,0.007950327,-0.026515288,-0.0053146784,0.03035027,0.018175995,-0.0076663666,0.01603843,-0.029882764,-0.004914969,-0.019115109,-0.0074751507,0.003138521,0.014875059,-0.022528624,0.033906065,0.016297469,-0.024447642,-0.012077098,0.0267335,0.0069175577,-0.034202803,0.0137492465,-0.03325975,-0.032147992,-0.01331108,-0.03050064,0.011943937,0.02862065,0.035223436,0.011285667,-0.0025867396,0.028309636,0.032471206,0.027399853,-0.03320053,-0.028962001,-0.007882893,0.011337374,0.013437157,-0.016984472,0.002168515,-0.00011716996,0.03169496,0.028243909,-0.01101946,0.020376313,0.030795941,-0.028583618,-0.030078072,-0.025350401,-0.0043540644,0.009108182,0.0017253885,0.03296219,0.020533895,-0.016657677,0.0076736,-0.020565081,0.028907795,0.02934683,0.02545864,-0.0125564085,0.016331691,-0.026112426,0.009166199,0.012124386,-0.007164189,0.03233646,0.018981632,0.027649766,-0.0006589294,0.030607808,-0.030897401,-0.026478687,0.030499222,-0.0018277467,-0.0054552304,0.0053416877,0.018454783,-0.025944157,-0.032263767,-0.021118646,-0.00031936596,-0.019411722,0.013908872,0.003257888,0.012131015,-0.031279404,-0.0028859081,-0.01616455,0.019417368,-0.008739276,0.007390742,0.0006463613,-0.011094213,-0.02855387,-0.016799225,0.0039573954,0.0065396046,0.03170844,-0.0013326023,0.009572779,-0.0018521803,-0.026239427,-0.024163745,-0.02363146,-0.034893088,-0.02250314,-0.026469465,0.022228932,0.02593239,0.014189167,-0.021212425,0.010017272,-0.02805179,-0.029249538,0.004894725,-0.024602968,-0.0044253855,-0.004550619,-0.012131679,-0.032989543,0.0032151768,0.0033859783,0.034359455,-0.03336121,-0.026537828,-0.017507656,-0.018062571,0.008539617,0.0327802,0.01770774,-0.018078728,0.026388012,-0.002293042,-0.022202654,0.017008735,-0.027570572,-0.009004419,-0.025817404,-0.00616837,0.0023160109,-0.034564313,0.010463025,-0.01705275,0.0059938645,0.021740548,-0.015237344,-0.02073056,-0.029089013,-0.015983373,-0.029365933,0.029185956,0.035211682,-0.021446897,-0.0076591205,-0.026073027,-0.010022875,0.019605374,-0.024574438,-0.03288228,0.01594613,-0.012132854,0.0128205,-0.017294545,0.009973577,0.013332176,-0.027125364,0.022314575,0.010037644,0.013041726,-0.024600694,-0.022541286,-0.005624776,-0.03368699,-0.023936976,0.030734843,-0.005586139,-0.010419033,0.0030075738,0.009316956,-0.03431542,0.00928694,0.027270216,-0.023953605,0.029335888,-0.021466626,-0.020227958,-0.03491669,0.003527488,-0.029369283,-0.0040076845,-0.018389374,-0.0049474966,0.0300284,-0.0046404856,0.022980921,-0.03102189,0.023525324,0.028670734,-0.026736017,0.023593206,0.02725551,0.03537224,0.0072264164,0.020715531,0.00475855,-0.015035864,-0.009507022,0.027838001,-0.009254929,0.0017244434,-0.03366108,-0.025585001,-0.016292896,0.014094455,-0.012570641,-0.0003979419,-0.018457044,0.0103667,0.0041216784,0.014619666,-0.029793264,-0.029571142,0.022181448,-0.006783,-0.02167257,-0.008994686,-0.007166075,-0.016624963,-0.020559754,-0.018811418,0.028118016,-0.017616225,-0.03502564,0.010645556,0.025595207,-0.016903628,0.0035571542,-0.030918399,-0.013317662,-0.0002881246,-0.012352522,0.016895926,-0.027336914,-0.008488843,-0.029061439,-0.005423746,-0.0082356725,-0.032442015,-0.020094179,0.0017915582,0.009520595,0.015276198,-0.0316364,0.03297753,0.034947395,-0.034711786,-0.03492563,-0.025835497,-0.03559332,0.034768716,-0.0039024951,-0.013659397,0.02856207,-0.0068751364,-0.0021903643,0.0050644623,-0.023503084,0.021073075,-0.03518617,0.015870951,0.006750729,0.02387359,0.029185364,0.031313825,-0.032609876,0.03251575,0.0044221967,-0.00083371147,0.03203174,-0.015066641,0.0020300024,0.017568124,-0.02957552,0.020056546,-0.032883875,-0.026533775,-0.008359275,-0.0242318,0.017826911,0.016966332,0.018464416,-0.0058546322,-0.0134922955,-0.024720432,0.034321435,-0.008544544,-0.012466576,-0.009333539,-0.0024845346,0.0036216252,-0.02842294,-0.035428844,-0.01894936,-0.022545768,-0.027692523,0.03315959,-0.012238873,0.0028859803,-0.03166403,0.012877452,-0.009488021,-0.028243084,-0.013499213,-0.028815689,-0.014377488,0.02428123,-0.020110011,-0.029581761,0.013461356,0.0043945187,-0.008888981,-0.020594368,-0.0011721211,-0.012264746,-0.020273205,-0.016664451,-0.031727865,-0.027845696,0.012088406,-0.017189085,-0.00055488094,-0.021817395,0.0315329,-0.0016051702,0.03146341,0.030548446,-0.033728167,-0.0007623179,0.02818929,-0.017619317,0.030094735,0.009864586,-0.014502028,-0.026204145,-0.032270417,0.015365767,0.011427829,0.025871955,0.0069436477,0.022571275,-0.03263806,-0.017009575,0.006217987,0.03243109,0.010941536,-0.008843887,0.025895145,-0.008860912,0.019372685,0.003367603,-0.026159799,0.01757921,-0.03552317,0.034842502,-0.0059111165,0.028209837,0.030038448,0.00029255237,0.014508598,0.019343972,0.031126674,0.0053417133,-0.02618212,0.03139641,0.0011743563,0.0026024666,0.03144244,0.024707152,-0.03050307,0.031172864,0.025406426,-0.0042999135,0.011105419,0.012194272,-0.034910694,-0.03424896,0.027923245,0.0074094366,-0.035347153,0.01709595,0.007985239,-0.020354062,-0.00833101,0.004619926,-0.034130502,0.00023498281,0.019599421,0.016590787,-0.021703793,0.014176054,0.03075068,0.0042565595,0.032496765,-0.005316526,-0.029051587,-0.0064701145,0.018569198,-0.018232312,0.031716447,0.0024055499,-0.0262068,-0.032380566,0.034342896,0.029980864,-0.024471514,0.022914372,0.035527717,0.012242565,-0.032105796,0.030499583,-0.028242538,-0.033458114,-0.035675123,0.02430687,0.0012014253,0.0061083185,0.031608637,0.021935144,0.03342854,-0.017312344,-0.033492345,-0.0203569,-0.014721454,0.015413877,0.0060428637,-0.018395036,0.0073436885,0.011493347,-0.010870866,0.020309782,-0.026482005,0.010437319,0.0026154818,0.007211319,-0.003602041,0.025474852,-0.0056264275,0.026489485,-0.033207603,0.010699528,-0.012562821,0.008469919,0.011083472,-0.0100106,-0.01479802,-0.03169408,0.03063409,-0.015989078,0.0025099474,0.02955021,0.007980679,-0.033077415,0.026030941,-0.034833904,-0.034768265,-0.0026432702,0.025531868,0.02852999,0.0077277683,-0.0027724335,-0.01182701,-0.02185831,-0.0141469715,-0.015310616,0.02291135,-0.026101952,-0.010621003,-0.015458504,0.01916472,0.022573752,-0.0006411629,0.034979146,-0.014072878,-0.016715566,0.026841791,0.010688182,0.005836585,0.0034108334,-0.02289057,0.019596126,-0.030429713,-0.018080194,0.026222533,-0.0045619607,0.015290989,-0.005712441,0.022024471,0.008744662,0.03145366,-0.0006768406,0.006951192,-0.020645274,0.010741861,-0.027306648,-0.032004952,0.018986695,0.0027766102,-0.029900867,-0.0232259,0.021323495,0.0252314,0.024832638,0.005297559,-0.024934553,0.0131951785,-0.007009443,-0.0054892944,-0.034936734,0.027176663,-0.007839765,0.01936088,0.013329954,-0.029029699,-0.020685172,-0.0100999605,0.01896393,0.009611539,0.031113481,0.022603279,0.0056000696,-0.025972994,-0.0058094817,0.03247698,-0.025025867,-0.03456707,0.0074975407,-0.01942123,-0.023930546,-0.017525086,-0.011235455,-0.011031509,0.009587059,0.009713071,0.019037193,0.020645393,-0.011014036,-0.034077927,0.013505422,-0.013631191,0.007962316,-0.016487518,-0.019357681,0.017761018,-0.023443585,0.011421553,0.01654525,0.00029009156,-0.024211826,0.033010166,-0.016967995,0.003477152,0.03295719,-0.01763647,0.027038567,-0.033667095,0.03189732,0.018173032,-0.023323776,0.033226646,-0.016367713,-0.028961465,-0.021232393,-0.03322561,0.007873732,0.010017923,0.0008838347,0.0073106503,-0.028625067,-0.01625062,-0.029278131,0.026123282,-0.0025520795,0.024999518,-0.008495442,-0.021339597,-0.018941928,0.03490534,-0.0342589,0.032546986,-0.024506839,-0.024125926,0.032795526,-0.017483085,0.024033632,-0.032410376,0.028369283,0.020734511,0.00619641,-0.030460376,-0.0173768,-0.02113729,0.012172491,0.035631746,-0.005176651,-0.0043140864,-0.021435078,-0.028307427,0.005255099,-0.028299231,0.029898921,0.00062927604,0.020036865,0.029944021,0.025889628,0.028142918,0.032869518,0.00913592,-0.034124084,0.034890395,0.026576227,-0.0022493005,0.015631191,0.030614074,0.034725115,0.0317868,0.026197614,0.010057161,-0.024498971,-0.0023442465,-0.0023192593,-0.02181721,0.015506886,0.016564017,-0.033387996,-0.031139558,0.0017910516,-0.0034718686,-0.017223712,0.026328059,-0.01053221,-0.03236398,-0.0014204511,-0.02865674,0.013413319,0.011990752,0.00047467012,-0.02302874,0.010892601,-0.035244144,0.0013642056,-0.003898178,-0.022209276,-0.017402846,-0.0053220224,0.013953495,0.025854392,0.009867026,0.027446356,-0.012320821,-0.027636692,-0.0026917586,-0.028663747,0.009974259,0.022422621,0.005431282,0.024114562,0.034727328,0.023173172,-0.026531225,0.011809337,-0.020457983,-0.010094643,0.02417304,-0.030214775,-0.035328675,0.026481863,-0.03316431,-0.025387114,-0.030921733,-0.00093419215,-0.0017305018,0.0058593242,0.028470207,-0.013219374,-0.02884609,0.011654156,-0.014897292,-0.027640719,0.02089209,-0.02437177,-0.0039022567,-0.03293909,-0.012250105,0.011739493,-0.020853039,-0.018797828,0.015053694,0.030868294,-0.0023330876,-0.001444212,0.009736589,-0.0064126384,-0.006648711,-0.004473895,-0.0019113508,0.03481128,0.022162182,-0.008349925,-0.0026598999,0.0038503495,-0.023556821,0.03155684,0.031550806,-0.028282836,-0.027556809,-0.012796475,-0.0071031456,0.016095601,0.015960813,0.015684001,-0.015398763,-0.0031967547,-0.021397103,0.022251006,0.003958796,0.03073125,0.021726584,0.006373704,0.035185248,-0.02196551,0.022398375,0.020656956,-0.00097274786,-0.031312395,0.0024743634,-0.027614983,0.015054086,0.018073535,-0.024084212,0.00051400496,0.013588595,-0.013989266,-0.005904747,-0.006102239,-0.0051049506,-0.005083672,0.0075120633,-0.015991509,0.009807954,0.03347039,0.023489906,0.032209195,-0.011604314,0.009735508,0.01731323,0.02688872,0.03307627,0.00815619,0.004489358,0.009245332,-0.0035242185,0.0011670887,0.021502163,-0.012380277,-0.034054004,-0.010691877,-0.030976752,0.00914062,-0.003936082,-0.01826593,-0.02854226,-0.011925132,0.03168943,-0.00117574,-0.01982009,0.0038414812,0.03387269,0.030837193,-0.0050864816,0.0046778917,-0.00046733874,0.02466007,-0.0030874526,-0.014131312,0.011863117,0.020240389,-0.0227474,-0.0016447945,0.024729542,-0.021184893,0.0049982965,0.023771308,-0.009175373,-0.023604369,-0.022111429,0.033598322,-0.016091522,-0.016808549,-0.02405558,-0.03346102,0.018916924,-0.0046399366,-0.026824037,0.01681804,0.03285449,0.00755566,0.019424845,0.028196042,-0.008179406,-0.006190564,-0.014227276,-0.03561309,0.020893443,-0.031218803,-0.023146601,-0.012332414,-0.027103791,-0.018624157,0.0030853706,0.009833723,0.023260696,0.0045135915,-0.0319361,0.028700069,0.026274014,0.01449522,0.03504455,-0.005947867,-0.010448737,-0.022583043,0.018219829,0.0063525145,0.0063443696,-0.02566846,-0.031966973,0.013069894,-0.019929657,-0.012356099,0.031340588,-0.0034258368,-0.019809838,0.020630782,0.025324387,0.009074199,0.009742465,-0.017656136,0.002599793,-0.0008183675,0.0066222,0.021477433,-0.0066259634,0.03058601,0.023716068,0.028720494,-0.01462294,-0.020626243,-0.0010832123,-0.034483995,0.02792161,-0.026901085,-0.01474269,-0.002330712,0.022155639,-0.022526674,0.01940138,0.033858776,-0.005003819,0.006580681,-0.024875399,-0.028084185,-0.032409396,-0.015620713,-0.03048043,0.014090978,-0.010758451,-0.020267606,-0.029247591,-0.015093084,0.0007644935,-0.0048447126,-0.00065488054,0.005209497,-0.03440668,0.03311308,-0.0028589072,-0.028190754,-0.022023777,-0.018458694,-0.030904759,-0.014686615,-0.004933396,-0.03106799,-0.0063547706,-0.033666536,0.0055571883,-0.034320887,-0.024125863,-0.028413821,0.017427325,0.016561812,-0.0034668576,-0.008696276,-0.021012845,-0.0007290287,0.019857675,-0.031047724,-0.0106160175,-0.012448767,-0.033878736,-0.0061488366,0.01791348,0.03298632,0.017257113,-0.028728494,0.0034955102,-0.031892642,-0.029342415,0.032459512,-0.03255258,-0.01947834,-0.012219276,-0.01264381,0.02718834,-0.029932488,0.025283124,0.02310275,-0.009173432,-0.0089057945,0.02503394,0.027575413,-0.02501206,-0.023323128,0.023615481,-0.022827405,-0.01872297,0.035708115,-0.035127778,0.033605296,-0.0267178,0.02487267,-0.014470804,-0.008899553,0.024375405,-0.024248358,-0.008514861,-0.035026427,-0.026308874,-0.0022154152,-0.0034769946,-0.023094783,0.024662253,-0.02853168,-0.024761984,-0.026428679,-0.019519735,0.032730006,-0.009268412,-0.0117093455,-0.018706467,-0.034672648,0.012709917,0.023345105,-0.02275006,-0.010661377,0.008298491,-0.016592724,0.0130764805,0.02517567,0.021135356,0.018951459,-0.030056108,-0.03035193,0.011742226,0.010869329,-0.024552917,0.0066182404,0.03395786,0.025455987,0.003093017,0.007917154,-0.018378437,-0.007898638,-0.028003689,-0.011820844,0.027091062,-0.012351901,-0.011750243,0.02138579,0.01580244,0.0356991,0.01825815,-0.020997342,-0.030791573,0.0068924045,0.002333722,0.025718695,-0.016592734,-0.03410725,0.016429953,0.0037003162,-0.005966553,0.012994708,0.02671384,0.0013491043,0.032787185,-0.03324725,0.024813615,-0.015181589,-0.03318466,-0.025419986,0.028207328,0.010171456,-0.028642192,0.00499851,-0.0053342497,0.02592984,-0.01006453,-0.022620598,0.013019485,-0.028088843,-0.025323642,0.02571943,-0.017579207,-0.02965127,0.018406166,-0.010805718,-0.0004556094,-0.029001335,-0.02846638,-0.015285786,0.033364322,0.035008326,0.030899258,-0.00981259,-0.024657318,0.005938803,-0.010172223,-0.012115599,0.014853533,0.011643504,0.02628886,0.0061325603,-0.005682869,-0.001596898,-0.008965676,0.024639625,0.0003348206,0.0008213052,0.026328364,0.020951992,0.019265307,-0.03481111,-0.0035034206,-0.0036698922,-0.018607792,-0.009323946,0.005037363,0.022036111,-0.03090011,0.006128997,-0.03319035,-0.016432196,0.03508597,-0.020767162,0.010230741,0.016623655,-0.030246058,-0.028809085,0.017274853,-0.013555191,0.0022255566,-0.00825796,0.0025632554,-0.020996,-0.01793211,-0.0054856753,-0.03543674,-0.0013812823,-0.013827946,-0.030440196,-0.0048119896,-0.025242815,-0.0038936948,-0.022375453,0.009002712,-0.019946495,-0.020533783,0.0013700554,-0.025558038,0.014804994,0.030676182,-0.024239333,-0.004256721,-0.017133249,-0.0012190172,0.02511748,-0.022330306,-0.011043656,-0.03500436,-0.016430652,-0.020343207,0.003899072,-0.02076739,0.01038367,-0.0005834358,0.03427407,-0.025550073,0.026159594,-0.02169112,0.0058724885,0.028884944,0.017704887,-0.03480825,0.02508766,-0.0337518,-0.0151814865,-0.004707043,0.025000982,0.022053503,-0.03113708,-0.007935282,-0.0072234278,0.0045896517,0.027983101,-0.019473847,0.01241999,-0.030448634,-0.027386548,0.027317682,-0.02644355,-0.03218133,-0.026689867,0.0078433845,0.02796518,0.004610313,0.024842842,-0.019760085,-0.013401211,0.0022860938,-0.0036160224,4.896096e-05,0.00055153883,0.0074123573,0.0012870261,0.032417856,-0.009384777,0.02432971,0.030081337,-0.0063546984,0.011279375,0.022936823,0.012051804,0.019671854,-0.017115138,-0.009632597,0.034422345,-0.030156955,0.005848174,0.029886046,-0.01756669,-0.006353787,0.0200805,0.031188587,-0.0043771565,0.024220863,-0.0013832791,-0.007596557,0.013152591,-0.019106057,-0.035566118,-0.03530098,-0.019990202,0.017278204,-0.0029211855,-0.03235407,-0.02561884,-0.01866961,-0.02518519,-0.035058394,0.03514546,-0.030354425,-0.00090634404,0.03248793,0.03235932,-0.0062080626,0.014275824,-0.035574686,-0.010962806,-0.0015911971,0.019473566,0.010698838,0.035166375,0.0009163533,-0.02770352,0.0048209727,0.022144591,0.015717069,-0.0052611744,0.027263805,0.004318195,0.014748949,-0.005701078,-0.005797357,-0.033710863,0.032840516,0.01636461,0.018865505,-0.01453765,0.016158186,-0.0021292695,0.016971376,0.008641099,0.013333453,-0.011679033,0.030557021,0.029715165,0.004760074,-0.009072649,0.000380912,-0.015724119,-0.032576643,0.017089171,0.028061574,-0.009692018,-0.002562046,-0.028619934,-0.027096665,-0.035299644,-0.0006695305,-0.004346141,0.0036821323,0.016298473,-0.024204796,0.0008855122,-0.003704101,-0.0059752213,-0.016428195,-0.03244384,0.0055986987,-0.029570559,6.135021e-06,0.01523089,0.0016816813,-0.028841058,-0.0036274197,-0.03456226,0.023278484,-0.007903814,-0.032923035,0.009507967,-0.017294284,0.020642877,-0.03179504,-0.0021323988,0.019296039,-0.026263196,-0.0068563735,-0.007794095,0.011390061,0.028141236,0.03370271,-0.030189337,-0.0014216007,0.01797285,0.0342354,-0.0050560324,-0.034609076,-0.0024543959,0.008165858,0.027498081,-0.021202799,0.034106195,0.020661443,0.0015064308,-0.005899285,-0.01923568,0.029585222,-0.012608035,-0.01336518,0.0113915,-0.01918571,0.0051544863,-0.014061094,0.015369739,-0.010527692,0.021828767,0.030901812,-0.0156476,0.0017820981,0.012411514,-0.029180244,-0.016167551,-0.026283843,-0.01790654,-0.015046929,0.030839916,-0.02947973,-0.028557928,0.003713544,0.034954853,-0.029015657,-0.035654422,0.013209684,0.015932113,-0.023063295,0.03186743,0.012982858,-0.022332175,0.0011486199,0.0068099163,0.026541153,0.030488854,0.009578764,-0.009617244,0.02167982,0.021560172,0.017269399,-0.012168965,-0.029460449,0.03052661,0.03225732,-0.030465672,-0.014357606,0.02625869,-0.032752387,-0.0041946345,-4.2063853e-06,-0.0049189287,0.0027212843,0.0029833445,0.008351667,-0.009358028,0.009233496,-0.02023371,-0.016931731,0.023025956,0.0013432802,0.0018648293,0.018534984,0.023584027,0.004719632,-0.029045608,0.014259186,-0.0130527625,0.012867251,-0.03081313,0.030025266,0.01062289,0.010358615,-0.009316236,-0.016376419,-0.008475006,0.021241857,-0.0071251737,-0.013902039,0.017639315,0.03152907,-0.033356644,-0.015213205,0.015252374,0.031240039,0.02653258,-0.009060775,0.010331635,0.030551035,-0.022872878,-0.024832804,0.023193378,-0.034733683,0.002985567,-0.009015795,0.029210888,0.028455213,0.0046053743,-0.035412844,-0.031906474,-0.028577121,0.023716267,-0.017998781,0.0045191096,0.017289592,0.0076753246,-0.021816028,0.005571523,-0.025245659,0.014000885,0.034874633,0.020773381,-0.032397863,0.018372077,0.035318956,-0.009213823,-0.028133322,-0.029566834,0.016831242,0.0029331702,0.021690127,0.018214222,0.028301304,-0.028149819,-0.02629419,-0.032578643,0.03345849,-0.020132815,-0.010057305,-0.02753326,-0.0067587965,0.003119039,0.0030899772,-0.026760478,0.004243191,-0.0016481195,-0.0031880098,-0.0012045887,-0.027942846,0.029531727,0.030859157,-0.03302353,0.024952821,-0.012053435,-0.007129312,-0.015615408,0.024237357,-0.023470301,0.018322362,-0.015743196,0.018642783,-0.013002468,-0.011558516,0.022468423,0.004525504,-0.0029209172,-0.029090993,-0.014313583,0.02744556,0.005341943,-0.016962329,0.006993911,-0.00022565042,-0.029488232,-0.012893311,0.009694576,-0.0073457365,-0.01179513,0.0130587565,0.03512343,-0.023319833,-0.0130731,-0.0048057437,-0.0072233765,-0.017599188,-0.011591209,-0.00018753325,-0.003205176,-0.007860418,0.0024625447,-0.020871334,-0.010389205,-0.013832276,-0.03218312,-0.016146554,0.015839692,-0.0061453884,-0.03248001,-0.0029310116,0.026709188,0.030387914,-0.00093622296,-0.023564076,-0.007617325,-0.00056528195,-0.020369207,0.005617619,0.024567222,-0.015338851,0.011143613,0.013239942,0.017142434,-0.02707623,-0.019543696,-0.011441368,-0.022514962,-0.019003779,-0.016206598,0.025896393,-0.010829683,0.004315602,-0.020129818,0.016780267,-0.0015448673,-0.030799147,0.034067206,0.03355506,-0.01069754,-0.008439716,-0.01278108,-0.0034763815,-0.0148391435,-0.01069499,-0.009207803,-0.002367322,0.009644058,-0.004680966,-0.03555785,-0.031811923,-0.0113280425,-0.033185072,-0.033279475,0.0063609015,-0.017238699,-0.027646441,0.00042203497,-0.01828591,0.028221967,-0.025645358,-0.00021762933,-0.010108093,0.009718363,-0.02298301,-0.00324509,-0.005438656,-0.017127804,-0.025429659,-0.021170592,-0.017233854,0.02625623,0.01731198,-0.022064993,0.030130213,-0.021357996,-0.028744021,0.012838526,-0.0024815374,-0.0025225836,0.019239469,-0.018428564,-0.034211356,-0.005121525,0.007219353,-0.018919848,0.019755913,0.013509326,-0.034094878,0.003233616,0.031925127,0.021575907,-0.032867454,-0.026464118,0.021800766,0.023258824,0.011566256,0.0033382776,0.015982939,-0.023511896,0.012163538,0.018504608,0.023164218,-0.023247626,0.010724043,0.017177425,0.02494133,0.024293607,0.010557873,0.0073945355,0.008776316,0.012517968,0.0021992242,0.011514392,-0.025772465,0.0011601959,0.011589996,-0.031568754,-0.018171538,0.014938466,0.014950638,-0.03384688,-0.015234973,0.0051661944,-0.034576602,-0.005144196,-0.004362247,-0.0027037817,-0.035259992,0.014301654,-0.019845909,-0.0021115416,-0.007828338,-0.030324789,0.021317061,0.019807387,-0.0011360007,0.016245246,0.00848533,-0.015966795,0.018698782,-0.0053835004,0.009128741,-0.0006191007,0.018526087,0.025148023,0.0034162786,-0.013635683,-0.02402473,0.0046322644,0.025295254,-0.0049933624,0.0007143404,0.026388697,0.010504732,0.02228766,0.00015475921,0.0010980624,-0.020448787,-0.020391703,-0.020854283,-0.033261776,-0.023948181,0.016971929,-0.0060888403,0.030889377,0.02724916,-0.023703922,-0.012628714,-0.0018352994,0.0051494627,-0.020461053,0.014930977,0.008599609,0.033047453,-0.030130468,0.027403314,-0.00090737856,0.009207739,-0.014380617,-0.029218653,-0.016322447,-0.025342938,0.010680629,0.005968933,-0.030195484,-0.009846126,-0.016198019,0.014912189,-0.005392956,-0.012218229,0.011319212,0.023177838,0.018185144,0.027677257,0.022177977,-0.0102710305,0.0063564694,-0.009887198,0.021557238,-0.029467264,-0.0055203866,0.007841771,0.0021102175,0.007688642,-0.034441434,-0.015876329,-0.029248524,-0.016408568,0.0031798526,-0.021899113,0.034960654,0.0013828577,-0.028522238,0.00038562503,0.034357123,0.011727384,0.0009491742,0.02276964,-0.020186191,-0.023098938,-0.00391227,0.018568201,-0.013910525,-0.012055704,-0.03248535,-0.007171133,-0.028111774,-0.0035769898,0.03118346,-0.01643358,0.022662463,0.006217799,-0.016909791,-0.03269845,0.008470148,-0.0027984339,-0.032834228,0.023765994,0.015042429,0.009431145,0.005599593,0.017592708,-0.021590255,0.0145979235,-0.016383892,-0.017038643,0.019143714,0.015756348,0.003877921,0.019313252,-0.021316448,-0.025265832,0.024486369,-0.027469585,-0.020254208,-0.025168361,0.011773008,-0.025778485,0.0054164785,0.023073798,-0.018588204,-0.0072351997,0.020784745,0.013459155,0.021835102,-0.0076804464,0.031290483,-0.00304025,-0.033614326,-0.022809464,-0.030506851,-0.014222176,-0.012780164,0.0048382627,-0.012719142,-0.019715067,-0.027877213,-0.03161515,0.017990727,-0.0036590272,-0.013128716,0.0007407538,0.032826085,0.035701416,-0.008603054,-0.009854926,0.0012928376,0.013497826,0.022224585,-0.004917383,0.0051542353,-0.012214359,0.029751847,0.017910967,0.028732177,-0.015344838,0.009391857,-0.0020176726,0.035595722,0.008012768,0.01450781,0.011012725,-0.03559004,0.011756493,-0.0074680834,0.020713024,0.023732552,0.017529195,-0.0027601721,-0.0069292104,-0.005194115,0.0023373493,0.025799144,0.005356959,-0.027023181,0.024339328,-0.0036946451,-0.019634295,0.01888184,0.010047939,-0.029399546,0.014539463,-0.032385886,-0.01523115,-0.02498972,-0.0013187401,-0.03402994,0.0054652947,-0.02790596,-0.0046327882,0.02364639,0.0070447116,-0.03334486,-0.012654995,0.0017224423,-0.005487259,0.016483061,0.034204643,-0.010568074,-0.007901567,-0.013394607,-0.03195545,-0.022367619,0.004998914,-0.03136016,0.0028462368,0.0047537982,-0.00797864,0.0015473452,-0.015848417,0.008359377,-0.008343067,0.0177482,-0.029950846,-0.005388801,-0.017656434,0.003089692,-0.015768528,-0.00039554495,-0.005380022,0.020149793,0.011691192,-0.009035503,-0.02053544,-0.034228742,-0.0028412598,0.02586963,0.006205738,0.034062646,0.006380869,0.021579701,0.006545612,0.012671518,0.03553964,0.03271,0.010508133,0.01694053,0.01859998,0.019134829,0.0038057226,-0.0064265984,0.02018737,0.01160414,0.011384049,-0.022047168,0.014897228,-0.009633746,0.030061102,0.02720131,0.028045967,0.026145127,-0.022063864,0.032290816,-0.013642789,-0.021294484,-0.017273206,0.03210805,0.029738346,-0.0026881823,-0.0064264624,0.007459049,0.015449282,0.02467807,-0.014190228,0.01665213,0.03274202,0.026394734,-0.000910312,0.022570973,0.014137183,-0.033576827,0.007749677,-0.015048658,0.028235156,0.005142659,-0.016413778,0.012849514,0.020092987,0.023747705,-0.0030038273,0.012649784,0.00076984084,-0.027879776,0.019042369,0.035348177,0.006390265,0.011489353,0.03305601,0.025187058,-0.01645713,-0.0041975337,-0.0064470517,0.03361548,0.010639174,0.025809906,0.0081515275,0.012097176,-0.034038663,-0.021077532,0.03415242,-0.030504236,-0.027901003,-0.028074827,0.025613198,0.0084675215,-0.025446812,0.0034909719,-0.025384309,-0.018332236,0.025056792,0.017093085,0.031310346,0.005216922,-0.0004988611,0.03182098,-0.016036332,-0.03155095,0.020017697,-0.00795441,-0.0003344374,-0.02279911,-0.020551452,-0.009309773,0.024115436,-0.032554846,0.032777037,0.014250415,-0.0020741352,-0.008600001,-0.027970286,0.008794104,0.016059723,0.029386923,0.019433627,-0.004165049,0.020934941,-0.029098244,0.007984549,0.016388426,0.021275785,-0.02466072,-0.014934813,-0.0013784298,0.023087954,-0.015904993,-0.02258509,0.034649964,0.013991301,0.009246243,-0.0045430153,-0.028318318,0.020967258,-0.0096014235,0.024805602,0.016499963,0.035261758,0.022074832,-0.013860661,-0.0053181225,0.014451709,-0.0065462594,-0.020690769,0.018657302,-0.008805561,-0.034695413,-0.025005585,-0.034369305,-0.023356788,0.028466783,-0.019360624,0.011785763,0.0019179584,0.021109723,1.9099032e-05,-0.023151698,-0.0047652554,0.022514455,0.034002542,-0.02582093,0.002074872,-0.0042646956,-0.016715467,0.033981767,0.0062707877,-0.03403364,0.022513723,0.008917085,0.02140167,0.0010862437,0.020780973,0.02231275,0.012890433,0.014763777,0.033528045,-0.012466253,-0.030811409,0.025004359,-0.012500231,-0.014360697,-0.028980734,0.026413122,0.014936346,-0.019015193,0.03202449,-0.0061479514,-0.026900953,0.027975757,0.022731787,-0.018608801,-0.024981942,-0.011045537,0.022360262,-0.026234364,-0.018775566,-0.019959195,-0.021500405,-0.020111106,0.00746584,0.0054392987,-0.015009565,-0.02465452,-0.0335898,0.002426765,-0.0065893703,-0.022674957,0.03223159,0.021865403,0.024452884,-0.006275863,0.014856897,0.027230311,-0.033129554,-0.023749229,-0.015251922,0.014085647,-0.009398836,-0.0035113227,-0.026139716,-0.01689888,-0.010007343,0.015273789,-0.02335483,-0.03261568,-0.016304847,0.015402939,-0.026694827,-0.012448776,-0.015183513,-0.024081703,-0.02996298,0.010918439,0.03271332,0.030257188,0.0006008361,-0.014407235,-0.02938886,0.012836686,0.029234083,0.00115355,0.017411973,0.001901682,-0.011558827,-0.010890323,-0.0034532165,-0.029686907,0.02090894,-0.022915496,-0.03020603,-0.0314967,-0.012123811,0.028506242,0.014386544,-0.01325174,-0.022649009,-0.0069209766,-0.017484307,0.032085396,0.00049288786,0.005075106,-0.013771795,-0.032429874,0.017311096,0.031351674,-0.004888641,-0.015348069,0.010759001,-0.029886596,0.034001768,0.00839789,-0.02589329,-0.034219928,0.005775848,-0.014158377,0.024054235,0.03213771,0.028558865,0.0027936187,0.024508273,0.0071621924,-0.0035627144,0.00884289,-0.008937789,0.02295131,0.015211302,-0.03246079,0.032040067,0.005615486,0.026677998,-0.034413755,0.004262435,0.0015975323,-0.022319581,-0.008842256,0.028636402,-0.016918344,-0.00485505,-0.026046647,-0.029056266,-0.013693708,0.033858772,0.0339213,0.028979056,0.0287527,-0.0017212247,0.015442828,-0.034025,0.03139151,0.004960954,-0.03216942,0.00816421,0.034602895,0.007202217,0.009330767,0.034502406,0.024620546,-0.034530725,-0.00026272025,0.010855028,-0.021535058,0.027831987,-0.01015472,-0.029600115,-0.008524103,0.0060476917,-0.018650873,0.033426035,0.02758729,-0.015096618,0.016608171,0.024761746,0.029649535,-0.0041134446,0.0015027651,-0.0024941182,-0.03347167,0.023916455,0.026979882,-0.018440396,-0.028022189,0.006483653,-0.029011318,-0.008388469,-0.0024426752,0.020632446,0.019451538,-0.019048236,0.025076646,0.0073843473,0.012667729,0.009629446,0.027940951,0.007505115,-0.021658111,0.008135038,0.014650239,0.01106069,0.010755037,-0.00059336,0.013551487,-0.02668875,0.027034186,0.0062289243,-0.00067280023,-0.020443823,-0.017613744,0.021651728,-0.022707948,-0.028078157,-0.021515498,0.022389706,-0.023487736,-0.021476176,0.030025756,0.01766076,0.024972014,0.03326673,-0.030903991,-0.0024776247,0.033287432,0.029422233,-0.027893737,-0.033256635,-0.027779223,-0.0291538,0.025310777,-0.0058317785,-0.019436628,-0.0036100917,-0.018961359,-0.012084762,-0.02653546,-0.020341082,-0.035393097,5.5875098e-05,0.023094041,-0.015334117,-0.016377024,-0.016968362,0.010723493,0.006596591,0.0037882116,-0.026583793,-0.015964001,0.01876826,0.015302987,-0.024956835,0.00815286,0.02041765,-0.014004717,-0.011388694,0.030903038,0.028373877,0.033710584,0.020980228,0.006819687,0.006755514,0.00534477,0.019914594,-0.010385901,0.005657869,0.016491763,0.0061344253,-0.024104886,-0.0005818095,-0.018410496,0.0044944417,0.025679423,-0.023242893,0.0026763806,-0.030169506,0.01574711,0.011504719,0.020855708,-0.026624413,0.022243747,-0.0054024504,-0.02042116,0.027794972,0.015398712,-0.026901783,-0.011701695,-0.022822313,-0.011093004,0.014167012,0.012633712,-0.024956636,-0.028051034,0.03278236,-0.014416717,0.008819926,0.0299327,-0.0057734083,0.019720636,0.032317236,0.028763913,-0.0003932672,0.014469122,0.03308096,-0.005062844,0.02587868,-0.0032739257,0.009753505,0.027622871,-0.031080665,-0.020538181,-0.033519465,-0.02004435,-0.020922508,0.02198141,-0.01702695,-0.028048167,-0.01371067,0.015359798,0.028026007,0.017136473,-0.016278505,0.014004819,0.028938627,0.014000331,0.026274435,-0.003956625,-0.034285523,0.02243361,0.0063269185,0.0111678755,0.014765204,-0.013321626,-0.013326607,0.008508811,0.026255077,0.032609135,-0.018045362,0.015498673,-0.024590757,-0.004498516,0.0216285,-0.02573094,0.0021383977,0.017791774,-0.01362804,0.014108838,-0.02744562,0.00995808,0.014958855,-0.004816805,-1.6327416e-05,-0.0093470095,-0.004974723,-0.03221644,-0.017066237,0.023299767,-0.004615988,0.014252344,0.023776656,-0.0029475137,-0.02254988,-0.012269195,0.023377229,-0.0033849266,0.034883656,0.011982561,-0.031503405,0.007948807,-0.016453987,-0.020589454,0.0065497886,-0.027041938,-0.01928424,-0.007812402,-0.03438237,0.0046394854,-0.026085574,0.008708477,-0.0036106708,-0.0030234968,-0.016660504,-0.007959341,0.01784165,0.020701474,-0.0135360705,0.031506702,-0.0239514,-0.031472165,0.013922458,-0.012016884,0.031595804,-0.004677837,-0.023075629,-0.014220668,-0.017260326,0.017167445,0.011272733,-0.025811946,0.014211455,-0.022901285,-0.023175308,-0.013094758,0.034250196,-0.02751557,-0.016664855,-0.0046465355,-0.009498677,0.0045054513,0.012315202,0.02683654,0.030890236,-0.026103774,-0.025457371,0.026559792,0.021698106,0.009942438,-0.016648574,-0.027502641,-0.032613736,-0.015370216,0.015555438,-0.013367636,0.010385399,-0.02304489,0.02302969,-0.008254303,-0.027673548,0.014261523,0.015622046,-0.03357875,0.013001771,0.024456354,0.025839092,-0.011768712,0.012739944,-0.027053865,0.005285919,0.03557409,0.030225385,-0.026222384,-0.0055659544,-0.024200244,-0.0018721649,0.009347073,-0.028534614,0.003388882,0.016471315,0.02204672,-0.004987334,0.026383337,-0.0016353045,0.022769772,0.004219975,-0.0053684074,0.029125497,0.00054038427,0.030783761,0.0262042,0.022360463,0.018184662,0.033718936,-0.030054737,0.031505197,0.019471664,0.027477082,-0.025774498,-0.009614643,-0.011115428,0.0285809,0.010459662,0.025145354,0.020395199,0.026106635,-0.005974225,0.031486917,0.021918746,-0.03178231,0.024781432,-0.0014016841,0.00047189,0.013724741,0.008862189,-0.0067655235,-0.019869741,-0.00057841203,-0.008212579,-0.016161256,-0.022979159,-0.019309461,-0.029062942,-0.0022405982,-0.0341431,-0.01562251,0.022508146,0.028343054,-0.033324458,0.00111522,0.03295712,-0.028345948,0.016767286,-0.008911095,-0.0016745245,-0.013048986,-0.018651217,0.02352678,0.0042162198,0.028659906,-0.013126782,-0.017992659,-0.015737493,0.020115955,-0.016416103,-0.004043128,-0.02532747,0.00091790303,0.035168357,0.031411737,0.031336702,0.0007723698,-0.014328408,0.005694807,-0.021116905,0.0041682767,-0.020682907,-0.024569023,0.030539598,0.005063334,-0.03320431,-0.00037162646,0.01192273,0.034780283,0.021922717,-0.0045240056,0.02550224,-0.021912495,0.022971405,-0.017730067,-0.034125872,0.03282009,0.0011867881,-0.02437358,0.005308705,-0.023427436,-0.033395033,0.010596982,0.02341822,0.008442342,-0.0233314,-0.014794283,-0.018203162,0.032949284,0.016680442,0.028282886,-0.00040716786,-0.035578232,-0.034907244,0.0006181939,0.00057103805,0.023345334,0.01951853,0.02473948,-0.009905777,-0.02529015,0.033909194,-0.0046349,-0.0033952936,0.018191854,0.02272026,0.014109472,-0.013548056,-0.019364005,0.023279753,0.027221477,-0.0071686297,0.019369207,0.018615318,-0.033658996,-0.0060501783,-0.011033778,-0.007606954,0.033186704,0.031069132,-0.014197291,-0.0022805207,0.01814664,0.017333206,0.011938457,-0.009506473,-0.007857162,-0.030424759,-0.024135811,0.02866236,0.03082201,0.01335242,-0.0009176944,0.024243172,0.010126225,0.023970375,0.018962711,0.028145518,-0.026199682,-0.021602351,-0.023528462,-0.029509278,0.020581258,0.02466878,-0.010751022,-0.023294995,-0.02318755,-0.017321553,-0.0011546229,0.019064197,0.016369088,0.025234377,-0.0032665092,0.012546727,0.029539058,0.01607716,0.02255738,0.020448899,0.030953996,0.028064346,-0.031419862,0.035159048,-0.028383354,-0.030450469,-0.012712917,0.025156733,0.029549714,-0.027809188,0.0085107945,-0.026779478,-0.0144671,0.025606705,0.018870052,-0.012048322,-0.012878082,-0.009574554,0.016734345,-0.012618849,-0.011261928,0.029476989,-0.0037297183,-0.014071967,0.016445322,0.016386975,-0.019267965,0.022646045,0.024877885,0.033194624,0.019144034,0.013565877,0.02769564,-0.00480912,-0.022459185,-0.0005976345,0.012414647,-0.03303039,0.0118317185,-0.018881923,-0.02904976,0.019224448,0.02440835,-0.00072488195,0.0071502244,0.03448465,-0.0061344462,0.027012559,0.0148760425,0.009817439,0.009334441,-0.03122673,-0.027729815,0.018102447,-0.013435739,-0.012798544,-0.0159445,-0.003229384,-0.0037328731,0.034509134,-0.01971565,0.007915876,-0.030196136,-0.025750928,-0.009204904,-0.006235902,0.007869776,0.016246166,0.01071488,0.025333708,0.009686857,0.030063635,0.012127847,0.03215798,-0.019910652,0.014223658,-0.002819466,-0.008755553,0.027389124,-0.002769845,0.007277093,0.0015070481,-0.0043631922,0.022891603,-0.026024275,-0.034274336,0.006217118,0.024068458,-0.014985554,-0.03336458,0.014272435,-0.0018627091,0.028926123,-0.008697915,0.025279187,-0.018390447,0.0098439455,-0.028627487,0.017232262,0.025142709,-0.026304813,-0.009826869,-0.007969563,-0.029052097,-0.0123815155,-0.02137911,-0.024361322,-0.017148802,0.025930287,0.023820294,-0.009541495,-0.0033385584,0.011769895,-0.029985387,-0.025319913,0.027294612,0.019436926,-0.028857986,-0.0030152204,-0.032797266,-0.028375303,-0.02594355,0.035387415,0.024807233,-0.0029325145,-0.011825455,0.0072461753,0.03443367,0.029234465,0.006234037,0.015168855,-0.020945048,0.0160366,-0.031752005,0.004459262,0.0071254037,0.031283002,0.027355587,0.025892038,0.014217092,0.013691933,0.0084419465,-0.030151853,0.00014788765,-0.018068118,0.01704271,-0.0075498056,0.029690254,0.034461636,-0.024724314,-0.03266957,-0.00079701206,-0.011995772,-0.0033471968,-0.007762641,0.027573008,0.012302791,0.011758179,0.024396995,-0.01750993,-0.028805556,0.0102042435,-0.006079376,-0.026368773,-0.011180137,-0.031995784,-0.00899211,-0.026118645,0.0069942223,0.018448018,0.0053673177,0.010309297,-0.018348992,0.009887508,-0.009588238,0.011037278,0.022446267,0.0062700426,-0.0033922878,0.017045677,-0.013734554,-0.034647547,-0.032498788,-0.010285919,0.029281983,-0.03331698,0.00011298061,-0.012647774,0.011833868,0.026590932,0.014470101,-0.03278997,0.035629746,0.015156202,0.023156308,0.015662462,-0.028890999,0.0035295445,-0.003237239,0.025091419,-0.027224503,0.007337017,-0.009306014,0.005631132,-0.008608823,-0.00078900374,0.035104163,0.02703608,-0.0109719215,-0.006743968,-0.008145099,-0.019772483,0.015677918,0.033758104,0.006979457,-0.023185153,0.012812666,0.008943107,0.014428506,0.033125382,0.018412996,0.01915729,0.003214023,-0.016481651,0.028808536,-0.009134893,0.018301977,-0.010908055,-0.0027378926,-0.0070216274,-0.034590356,0.018976033,0.014949523,-0.017173018,-0.01949181,-0.031627145,-0.007572217,-0.0030521753,-0.03106108,0.010881735,0.015900651,0.013652491,0.0030648496,0.0347528,-0.009597046,0.019174512,0.006096572,0.020541651,0.01592594,0.030136587,-0.022343906,-0.015613318,0.035275415,0.0026748904,-0.0142409215,-0.024773994,0.030287173,-0.00022838797,0.008376752,-0.028611436,0.029436449,-0.028409347,0.009600559,-0.004018737,0.028319467,-0.0049825655,0.027055895,-0.024095362,0.0045702844,-0.01903709,-0.029757863,-0.016160574,-0.03085329,0.024259288,-0.008318838,0.01561219,0.022595322,-0.021375103,0.00911023,0.013955283,0.0043366384,0.0051885503,0.0037672606,0.019833041,-0.003980871,0.020194864,0.0053570275,0.009575014,0.019127298,-0.0065049534,0.031075398,-0.013250564,0.012082173,0.006393271,-0.017058676,0.016318437,0.018249154,-0.035681147,0.008692938,0.030990586,0.030029183,-0.013448767,0.029257912,0.013696535,-0.0004469199,0.024111234,-0.013653437,0.021929882,0.011242629,-0.03262345,0.0039865505,-0.010295349,0.023156447,-0.011101042,0.031955797,0.018575346,-0.01969154,0.00035528626,-0.008415184,0.0063180416,0.0143597005,0.014171852,-0.028528713,0.004358475,0.0153884,-0.03317698,0.0148705505,-0.013594215,-0.015955474,-0.033207435,0.032303825,0.0051050102,-0.002625938,-0.030743817,-0.023470927,0.023391219,0.012877009,0.017221818,0.028041491,0.013448452,0.018446673,0.025926497,-0.030745925,-0.0028301352,0.021432972,0.0039367634,-0.01337851,-0.01503861,-0.033857815,-0.034435377,0.016110774,-0.015691668,-0.020836094,-0.011101757,-0.018380612,0.00296769,-0.031923525,-0.024925586,-0.015751937,-0.0009259454,0.028516116,-0.016569057,0.011336936,-0.033144105,0.0028743362,0.020518726,-0.028986314,0.0017274363,-0.027479585,-0.0062039583,-0.01900848,-0.0029878023,-0.0270933,0.013058207,-0.005727419,0.01853521,-0.016786104,-0.010958148,-0.007563051,-0.023433559,-0.017019613,0.003076528,-0.034591436,-0.02707424,0.029927779,0.02403333,-0.021923203,0.011862938,-0.034198955,-0.008833486,0.017016,-0.03468793,-0.010368675,-0.010273218,-0.00726292,0.018790662,-0.0071102045,-0.030919302,0.024411611,-0.0031910327,0.00036611303,-0.01840858,0.009756833,0.015035319,0.021194553,0.023908608,-0.033200197,-0.03401759,0.02232974,0.021950012,0.00036814812,0.0026782071,0.009900656,0.031557072,0.016368011,0.028908322,0.0024490186,-0.027508881,0.011848016,-0.029906334,0.035634097,0.0011791119,-0.016508367,0.034496434,-0.020362718,-0.03568881,-0.020973952,-0.00865494,-0.02782549,-0.027930312,-0.011471953,-0.014396472,-0.013932105,-0.0039203297,-0.023142982,0.02223026,0.017899603,0.0015667976,-0.0049315523,-0.032257494,-0.028267916,-0.03258241,-0.029263476,0.01761092,-0.02511731,0.027458776,-0.009545867,0.0049347924,0.023617988,0.02011378,0.028913666,0.031901322,-0.0063659935,0.027435984,0.032106318,0.03190291,-0.0027215397,-0.004934243,-0.010502071,0.0069461083,0.024253387,0.024905724,0.02907941,-0.029685345,0.020562505,0.019213878,0.026423205,-0.0036297655,-0.022356737,0.0028373643,0.012011818,0.029156273,0.010670633,0.034224622,0.024515072,-0.033877574,0.015433291,0.0045105647,-0.0013059506,0.02924792,0.006406431,-0.0024699187,0.0030284738,0.008102758,-0.00505659,-0.0021437025,0.0110112345,0.03093835,-0.02332194,-0.031245545,0.008206304,-0.016740898,0.00034384645,-0.027755044,0.028787013,0.026909897,-0.0052848076,-0.012985499,0.024958802,0.0210418,0.028290614,0.026864942,-0.03402542,0.02323633,-0.033606876,-0.024817983,0.00088236167,-0.018652882,0.023359023,0.022974772,0.02163487,-0.017689168,-0.02299114,-0.0336691,0.004071142,-0.020959238,0.008433266,-0.011139129,0.0063715535,-0.011959068,0.033683613,0.032735955,0.031815052,0.020210799,0.003595693,-0.02834098,0.001959818,0.017387379,0.020770695,0.016409423,-0.026075121,-0.030216584,-0.020049667,-0.013251867,0.013068025,-0.009343276,-0.019535236,0.027846375,-0.0035188925,0.034989238,-0.01187477,-0.021963853,-0.014826269,-0.016780246,0.012914705,0.0020072206,-0.007939211,-0.026946206,-0.028775059,-0.0016002996,0.035665642,-0.012759333,0.0056559616,0.035532996,-0.018763658,0.017832845,-0.016845673,0.021926088,-0.010099965,-0.0034434753,-0.023504378,0.029299632,-0.03417203,0.029356506,-0.0057677333,-0.008951098,-0.0037854868,-0.010190845,-0.0315496,-0.0031543716,-0.014783907,-0.005671544,0.0079489695,-0.017804079,-0.0313306,0.018413672,0.0076753204,-0.024853384,-0.028248474,0.0033943485,-0.031987227,0.011233202,0.023377348,-0.019369883,0.007797991,0.021871794,0.035005916,0.008834218,-0.012573222,0.0052469717,0.016053349,-0.013112584,-0.02730775,0.020114282,-0.0027235406,-0.0221296,0.005950387,0.0036474597,0.012382065,0.008747485,0.009259194,0.012198398,-0.025032096,-0.0054284846,-0.02653966,-0.0041765743,-0.008061409,0.008500943,-0.030469265,-0.0019163789,0.028743835,-0.035597198,-0.017679948,0.034693196,0.0024023312,-0.030264642,0.021959258,0.03218072,0.0036004614,0.0320253,0.02790151,-0.020093042,-0.033487104,0.005106926,-0.025599442,0.028509784,0.02880906,-0.0029757237,-0.0023633498,0.006482316,-0.0025777179,0.0030163997,-0.004577875,0.012430715,-0.027394105,0.0134408185,0.025607307,0.029726341,-0.014576704,0.017900433,-0.003962581,0.009243472,0.024007913,0.019048776,-0.021720203,-0.020044548,0.0018064381,0.0019542065,-0.02154128,0.0035324055,0.035344005,-0.015691621,0.013355141,0.014278941,-0.012423503,-0.016467756,0.024535198,-0.020510253,0.029595599,-0.00015520198,-0.020169863,0.019799829,-0.017600201,-0.02582852,0.013924323,-0.011908719,0.00063657336,-0.027429828,0.035495687,0.014258854,0.01916441,-0.004106607,-0.015177378,-0.000729646,0.020371443,-0.02511129,-0.027397612,0.006186375,0.021828882,0.03534102,-0.02108087,-0.022608941,0.02560736,0.0067783385,0.029225517,0.027981337,0.005102179,-0.012068149,-0.025783213,-0.007147998,0.002474998,0.028625116,-0.031844255,-0.007770356,0.023607733,0.0039414424,-0.021571083,0.00074871525,0.02514446,-0.028531995,0.010637654,0.008131547,0.01708104,0.023271358,-0.012430451,0.027227983,-0.017543942,-0.029577967,-0.0028215009,0.012978439,0.03441487,-0.006422869,0.032600544,0.019169357,-0.018459836,-0.013692819,-0.0323385,0.0154097425,0.0032952684,-0.011160587,-0.033853967,-0.019332998,0.02966505,-0.029492494,-0.015293212,0.02676808,-0.021438664,0.024097422,0.024594419,0.025829874,0.03449012,0.01779696,0.013530229,-0.004947965,-0.023120558,0.028980738,0.0012628394,0.032645833,0.02725202,0.031802136,0.012517993,0.02290569,0.03082057,0.028057491,0.03129476,0.01632427,0.028105745,-0.003037453,-0.015992489,0.028635928,0.013903342,-0.023534121,-0.009530067,0.022252591,-0.0022133377,0.025940156,0.03511777,0.0016857685,-0.015231389,-0.022793762,0.004672042,0.008519199,0.011693371,0.014341351,0.01973977,-0.019811835,0.0070561897,-0.0059103076,-0.019216504,-0.021741124,-0.010044192,0.012606506,0.011340691,0.018746763,0.021257589,-0.026787568,0.011584402,-0.026403211,-0.034417637,0.0058892327,0.03381678,0.017688293,0.020300185,-0.005844108,0.026888743,0.023353858,-0.009569198,-0.014634644,0.0230594,0.031304136,0.015044796,-0.03202965,0.0036972594,-0.030492362,0.02875157,-0.03379915,-0.026855236,0.006465231,0.018132746,0.01211427,-0.0015524073,-0.023742085,-0.02168693,0.006081675,6.796207e-05,-0.017827976,-0.0031292057,0.026710046,0.0072050225,0.01221802,-0.005529306,-0.0049844556,-0.00033716645,-0.02746712,0.016935682,-0.019716166,0.028196251,-0.006661262,-0.030398715,-0.011040654,-0.02585243,0.0046726763,0.02378899,-0.0053543323,-0.012234054,-0.027470663,-0.03475215,0.020273073,0.0036570388,0.0068947845,-0.0016526368,-0.009595556,0.014318322,0.0003964518,-0.028575946,0.0058403187,0.010043613,-0.025750298,-0.0123895155,-0.0030238545,-0.008644799,-0.031436335,0.011249671,-0.01263702,0.00617955,0.0142519735,0.020202884,-0.0037809187,0.0031187322,-0.024271894,-0.0019842559,0.007892835,-0.0003653765,-0.019392692,-0.008487174,-0.017463846,0.008384701,-0.024963908,-0.017300198,-0.030285116,-0.003321869,0.031751357,-0.007848582,0.028075773,0.020391077,-0.027199116,-0.0072356467,-0.03217836,0.03263644,0.0065705823,-0.006594892,0.013553314,-0.029501364,0.021820087,0.025502326,-0.019997785,-0.030708468,0.022286493,-0.021206103,-0.0061911005,-0.009844432,0.030608775,-0.022983795,0.012296541,-0.016687581,-0.020061009,0.00014924152,0.02085892,0.025613764,0.0149476705,-0.014006407,-0.015380915,0.0037009292,0.02280111,-0.027409282,0.027773535,-0.03283226,0.014843541,0.024156623,0.01574378,0.0043695616,0.010553161,-0.03492479,0.03502834,0.035453714,-0.030929277,-0.026744733,-0.02563845,-0.007877827,-0.01982081,-0.0032116773,-0.012292326,0.03553868,-0.022546804,0.001958698,0.015705135,-0.004394306,0.0027059403,0.0019088218,0.020226998,-0.007732532,0.016542431,0.014917843,-0.02468756,0.03517028,-0.006004517,0.028898206,0.01567489,0.017218122,0.007959604,-0.006672966,0.018645896,0.017925858,0.01860436,0.01650485,-0.012958114,0.02736073,-0.00090507104,-0.023832135,-0.00011719125,0.027462084,-0.031538107,0.0078175925,0.025559176,0.0057436144,0.012288515,-0.020126611,-0.030027267,0.034739226,-0.0011395302,0.031162884,-0.033997722,-0.020232448,0.016241437,-0.016912857,0.031937763,0.027857991,0.014268395,0.018197645,-0.026226722,0.005422401,-0.026121669,-0.0026461654,-0.0074892645,0.0012266807,0.0024028167,-0.022018557,-0.002716056,0.015528195,-0.02138169,-0.030359529,-0.028837021,-0.01988179,-0.03373424,0.020683851,-0.005679446,0.0056121266,0.006959,-0.0040059006,0.021988772,-0.01053997,-0.002819683,0.00785172,0.027231328,0.021854129,-0.021255149,0.00334328,0.029190516,0.03464606,0.030973658,0.009904573,0.02400123,-0.010635649,0.03211602,0.00042199664,-0.03498278,-0.031206235,-0.0011446519,0.03414505,0.024088183,-0.0018079197,0.01769292,-0.023239635,0.015640974,0.02216086,-0.030988192,0.01559668,0.012125174,-0.0006247887,0.028657727,0.004959809,0.012053171,0.012611011,0.004486676,0.03227775,-0.011470097,0.014806868,-0.012169558,-0.024808949,-0.020908305,-0.0035497975,-0.025062507,0.028057829,-0.011950353,-0.031319555,0.026066862,-0.017903142,0.01603141,-0.022316763,-0.0037477997,-0.006878998,0.032041706,0.021539574,0.02251367,-0.01785616,-0.002529864,0.03164102,0.014868247,-0.03016732,-0.012825919,-0.033228334,0.026807275,-0.0049491227,-0.012483593,0.030972065,-0.017708391,-0.009528467,0.003416466,-0.034285754,0.023888968,-0.027208742,-0.03259018,0.03393823,-0.021355655,0.03525745,0.027112916,0.013969081,0.011327463,0.013480617,-0.011190636,0.012265206,-0.013238439,0.011274253,-0.030795882,0.001785453,-0.006030032,-0.021379072,-0.005187099,-0.017839292,-0.0016884762,-0.025322324,0.026624165,0.002078014,-0.012030525,-0.016895264,0.01927438,0.029497847,0.0075104963,-0.012119064,0.014367159,-0.008184863,-0.0069104945,0.033084765,-0.003692095,-0.0026207694,0.020754177,0.0061214995,0.017729828,-0.0018916344,0.01936618,-0.007709286,-0.0024311417,0.03235706,0.018032117,-0.00777526,0.015103959,-0.017413013,0.008954449,0.0028652763,-0.026026232,-0.0021145686,0.017302135,0.013552837,0.03329703,-0.025674256,0.020408113,-0.004385978,-0.0037328433,0.016204618,0.0134134,-0.0055203694,0.028046146,-0.015143199,0.0054371064,0.030928412,0.01926729,0.014810252,0.029493963,0.015421872,-0.020667452,0.0324846,-0.030524157,0.008633938,0.023199381,-0.0059599536,0.016263533,-0.015542977,0.020790135,-0.00022227425,-0.028279409,0.010517291,0.020388251,0.01201361,-0.034158163,0.02878901,-0.012569202,-0.031518098,-0.03312705,-0.01251578,-0.031224057,0.015411999,0.023338476,0.025168266,0.035011858,0.0025517899,0.029342031,0.033720665,-0.010625431,-0.01939072,0.02451878,0.0009084089,-0.027757859,0.0124424575,0.034262687,-0.0024149292,0.012513962,0.013741349,