0.06741643,0.051928923,0.06379616,-0.06641681,0.020553004,-0.019462539,0.064922236,0.043279134,-0.059398063,0.0045084064,-0.018745478,0.0313778,0.005161666,0.03824723,-0.019275643,-0.045342423,0.064700864,-0.024659567,0.0047819987,-0.0011434694,-0.053339805,0.06678757,-0.035720002,-0.03727781,-0.0127364155,0.03314752,-0.021783035,0.048819322,0.01271069,-0.039052084,-0.029438639,0.0018954956,0.04462989,-0.033727445,-0.06272712,-0.016086223,0.0261927,0.006193193,-0.023165764,0.053101018,-0.04389796,0.0045661223,0.0118286405,0.066981874,-0.007246426,0.05620045,0.038187113,-0.007400203,0.06267273,-0.0706081,-0.030977488,0.0694273,-0.056727663,-0.06222328,-0.047802452,0.04690116,-0.06997191,-0.04739539,0.032945402,0.006002403,-0.04388525,-0.060424708,-0.00031584007,0.030360458,0.0095010465,0.062130872,0.05458613,-0.024005733,0.027604753,0.02627809,0.031130591,-0.0603099,0.052051824,-0.03829924,0.014191283,0.011512446,-0.011133807,-0.05556743,-0.041361317,-0.03661252,-0.025309268,-0.047972836,-0.013639555,0.07070242,0.017704256,-0.058250986,-0.0022486188,0.037638083,0.0622644,-0.0468075,0.037519794,-0.022700699,-0.069785014,0.033869065,-0.04982474,0.047928177,-0.049818486,0.016308278,0.060311966,0.0456775,-0.035122883,-0.03027114,0.032290574,-0.046536334,0.045221757,-0.02462788,0.050063428,0.0012700954,0.05279731,0.004547443,-0.014016905,0.017560149,0.034546718,0.057988822,0.040523656,-0.0027565388,0.04799733,-0.017590081,0.035738945,-0.034295466,0.031039082,-0.03711304,0.06493803,-0.030650537,0.00170629,0.046338413,-0.038773924,0.043030385,-0.07047823,-0.042411573,-0.02984705,-0.034486316,-0.037380885,-0.052710537,0.01259036,0.050635688,-0.036634564,0.0107185,0.056054424,-0.05406029,-0.02024089,0.034516443,0.07025691,0.04783027,-0.02073437,0.036727995,-0.055925433,-0.007720502,-0.028303051,-0.048617363,0.01171996,-0.04420648,0.023808284,0.013142374,-0.005799651,0.0056801224,0.0622627,0.03617143,0.033457417,-0.051327683,-0.053575415,-0.026993431,-0.05941423,0.008047351,0.022520503,0.053780477,0.057949618,-0.030910693,0.027446333,-0.032095585,0.06249783,0.04933722,0.019447112,-0.03145507,0.056440044,0.058550075,0.023260856,-0.052027732,0.013350209,-0.06472512,-0.029139211,0.053739298,-0.050275333,0.059862968,0.01984589,-0.06676958,-0.0038859397,0.060768247,0.010867001,0.047185007,0.029721007,0.030395811,-0.013124302,0.00036944242,0.050979946,0.049678154,0.03208579,-0.0099613825,0.04194232,-0.045588393,-0.019547818,0.0030142416,-0.009689434,-0.06686468,-0.061113287,0.021779023,0.034745257,-0.066434,-0.066827685,-0.04254267,-0.058016278,0.02959654,0.03728791,0.022861859,-0.04863966,0.050981734,-0.036021102,-0.051212333,0.011729679,0.019434165,0.041517716,-0.062423524,-0.062165257,-0.010062914,0.02897071,0.032524236,0.0074801133,-0.06895028,-0.021310173,-0.042590253,0.039430723,0.022367798,0.052373067,-0.029473985,-0.0308908,0.06207641,0.040127654,0.022783635,0.048002675,0.03287439,-0.06765925,-0.02930479,-0.02507886,-0.04151689,0.063602574,0.04394826,-0.02576373,-0.007942077,-0.030124664,-0.054582592,-0.037331708,-0.057389867,0.068921894,0.027870532,-0.009947129,0.01923476,-0.020423226,-0.0034473257,-0.004954531,0.019494275,-0.00862467,-0.067387074,0.006336189,0.028886558,-0.030376634,0.042771544,0.054027002,0.0022635642,-0.034398496,-0.057624556,0.056567807,0.016251344,0.04350971,0.009317388,-0.04867062,-0.008658421,-0.04771047,0.016604638,-0.06776712,0.06395497,0.015758388,0.043081388,-0.053392988,0.0043287682,-0.026270553,0.06735204,0.05250604,-0.021792578,0.031804416,-0.057424627,0.045589313,0.05442872,0.05039885,0.04746558,-0.010852342,-0.04294683,0.032760873,-0.06188788,0.03080241,-0.045816854,-0.0076177143,0.060145453,0.027345525,0.041740216,0.01795911,0.04694258,-0.057314254,0.030744527,-0.0066376063,-0.07063165,0.022899648,0.038203977,0.00092686823,-0.029740874,-0.04995891,0.032277685,-0.031579193,-0.015156994,0.055661526,-0.035362583,-0.021622986,-0.052646104,0.037872948,0.06332052,0.04229158,-0.019400153,0.030743228,0.053290546,0.037904542,0.055668935,-0.061717276,0.044830322,-0.050788634,0.033214852,0.030177,0.0421233,0.0032681932,0.020690285,-0.052337494,0.046630837,0.033278428,-0.013215389,-0.045781687,-0.0015506923,0.06113402,0.022818685,-0.051130973,-0.048551645,-0.02192142,0.0062515666,0.0143817365,-0.0009971439,-0.04938916,-0.044916995,-0.020143876,0.052003574,0.013053469,0.04102135,0.04398538,0.05669876,0.009839874,0.058712628,-0.014780614,0.062243827,0.03993677,0.0097233625,-0.065838195,-0.0052475864,-0.032834318,-0.062288567,-0.048480224,-0.011912975,-0.069722466,0.04585031,0.06780256,-0.051103737,-0.016798824,-0.012264127,0.003727004,-0.044571675,0.059409518,0.029230181,-0.032691635,0.061954025,0.035347544,0.008186318,-0.032122694,-0.025646122,-0.0055908305,-0.043128602,-0.028238306,0.045764223,0.06621154,-0.039866064,0.022098942,-0.06430424,-0.06071124,0.011222358,-0.049270563,0.02841158,0.011381142,-0.014068972,-0.031551763,-0.008110377,-0.06911339,-0.045395885,-0.062126134,-0.030339655,0.047981568,0.037188046,-0.018871995,0.0257157,-0.026040457,-0.049180984,0.040203247,-0.04045136,0.058724277,-0.038619436,0.03862141,0.010675131,0.06738676,0.006648497,-0.03801221,0.03877526,0.0456703,-0.01176472,0.04954053,0.04638571,-0.021524439,-0.023993427,0.06343842,0.023925284,-0.052153364,-0.021649329,0.009752057,-0.055458974,0.02346922,-0.021406874,-0.019701006,0.039486382,-0.014710541,-0.06591731,0.05935852,-0.05843085,0.006315368,0.06039997,-0.022096448,-0.03858105,-0.039463233,-0.021681849,-0.031646274,-0.017353073,-0.066730164,-0.024177186,0.021955298,0.014848925,-0.050459433,0.037212264,0.04516325,-0.032033876,-0.061955247,-0.026921814,0.03144868,0.06644969,-0.011498378,-0.06500412,-0.047829896,0.026753018,-0.025187742,0.03781776,0.008226778,-0.025508108,-0.06780549,0.070672736,-0.033945918,0.021239677,-0.04416269,0.06338987,0.04228618,-0.06552534,-0.060850173,0.004290996,0.05585992,0.034440096,-0.013445191,0.011535534,0.05896572,-0.03065096,-0.014127414,-0.0045529893,0.019887168,-0.053941578,0.038207214,0.035496034,0.0036119935,0.015152172,-0.06300003,-0.0011844445,-0.009455486,-0.01833656,-0.016275369,0.041058704,-0.008749788,-0.065841265,0.038309246,-0.030617781,0.03685807,0.024009738,-0.041615296,0.026756937,-0.01833415,0.021098949,-0.035909783,-0.012678751,0.058791544,0.047008786,0.0236767,0.04420569,-0.012896119,-0.020110976,0.0689703,-0.021147637,-0.017764308,-0.049567696,0.05304391,0.051255643,-0.05708698,0.004542065,0.064955406,-0.063863195,-0.03660137,-0.06628024,-0.018928917,-0.016384495,0.021403663,0.069953255,0.06841507,0.005833419,0.03683816,-0.061791,0.022802263,-0.03165779,0.06143136,-0.026614152,-0.04970673,-0.019699007,0.066293925,0.06273484,0.016179703,0.02428188,0.05835152,0.010540531,0.027694046,-0.03812943,-0.035703305,-0.012029934,-0.019036282,-0.038740214,0.034313317,0.033560425,0.037998985,-0.053530317,-0.015184246,-0.027849939,-0.039490756,-0.01569311,0.0683529,0.031653076,-0.002723209,-0.024697624,0.041697785,0.02777598,-0.030769637,0.0427618,0.040030044,0.056088127,-0.057276826,0.014316703,0.019594232,-0.03863241,-0.018331124,0.04724805,-0.0661886,-0.011715687,-0.061472885,-0.00096161413,-0.033639222,-0.044539925,0.059844825,0.059417695,-0.037614286,0.05379602,-0.0035581973,-0.024334596,-0.055445194,-0.042575054,0.065982625,-0.04109698,0.031702828,-0.07067455,0.024087043,0.053011525,-0.05543615,-0.00789773,0.058645245,0.036742866,-0.01620903,0.057184577,0.060976025,-0.03733361,-0.026704295,0.065974474,-0.06946879,0.0031947312,-0.06390134,0.0071993396,0.008081093,0.021729121,-0.04353595,-0.001273543,0.024638332,-0.03652628,0.024987906,-0.026549127,0.04849844,-0.04560022,0.05223377,-0.029199675,0.01312211,0.03426956,-0.053390604,0.020014975,-0.046744894,0.0001860952,0.059003476,-0.07025689,0.016402509,0.01398478,0.039011143,-0.018883811,0.044873152,-0.06950771,-0.06550423,0.01986789,0.046184182,0.04153267,-0.0025244446,-0.022206021,-0.042350624,-0.03207867,-0.044115968,0.013428299,0.028755851,-0.025835935,0.0019119328,-0.024424175,-0.058300827,-0.05722921,0.043555625,-0.014441138,-0.0046296627,-0.037982937,-0.010624428,0.032284588,-0.0075543425,-0.040995955,-0.021404598,0.067939974,-0.049954504,-0.04782044,0.02265572,-0.046777844,-0.0004069447,-0.013581704,0.005817985,-0.02325048,-0.055115275,0.0062395292,-0.06859682,0.038737405,0.057716716,-0.011037847,-0.0010241179,-0.056123868,0.0008994475,-0.010581253,0.039632916,0.038848285,0.022040477,-0.05971402,0.06079861,-0.0077501987,0.01139875,0.06884054,-0.0052976906,0.028264478,0.013826443,-0.05665029,0.046075433,0.05515695,0.06645967,-0.045480944,-0.011321428,0.039544806,-0.0016529151,-0.026662823,-0.052657373,0.013282277,-0.037382167,-0.04646751,0.065232195,-0.018163042,0.0053195143,0.06837379,0.045885842,0.024295071,0.033724494,-0.033416882,-0.036961008,0.05370062,-0.03073093,-0.00549294,0.014660453,-0.044123486,-0.049192727,0.013552724,0.06283079,0.0026993288,0.06981011,0.034996074,-0.06640251,0.0061635217,0.050864242,0.012638787,-0.0207698,0.037421793,0.06962346,-0.0148996785,0.042580895,0.034942023,9.8868084e-05,0.024956634,0.052139413,-0.0006896658,-0.0031670155,-0.03438941,-0.061003074,-0.017894642,0.016164994,0.0006569177,0.029445207,-0.0019980473,0.01445728,0.05070062,0.059459537,0.027170625,-0.045573253,0.023528563,-0.02100798,-0.012363635,0.05090387,0.027335731,-0.027101656,0.06305829,-0.014092617,-0.010825613,0.043186106,0.014341461,-0.013053419,0.018489588,-0.042266015,-0.008928254,0.058587316,-0.048089422,0.009244776,-0.051744793,-0.027681107,-0.047710773,-0.06309143,0.062311184,-0.043769993,0.012744963,-0.019326143,-0.036723126,0.051591292,-0.021636667,-0.051836487,0.013285556,-0.043255102,-0.061936464,0.0021445751,-0.03532589,0.02918601,-0.030262694,0.044129934,-0.013989214,0.061933585,-0.017427377,-0.06138006,-0.020086573,0.028450666,-0.017514529,-0.036191594,0.038975924,-0.0035277589,0.067459255,-0.0432029,0.045245774,-0.008879085,-0.0016538003,-0.029027775,0.00053315767,-0.0012537002,0.066338286,-0.0039484687,-0.013423823,0.033617996,-0.026659181,0.06627159,0.069148146,0.022121187,0.024275068,0.06830753,-0.023290433,0.04848963,0.02119109,0.053198945,-0.009474722,0.044197828,-0.07069476,-0.060803927,0.023000767,0.0037814828,-0.018941924,-0.05167987,0.063118055,-0.025461309,-0.011639207,-0.037522852,0.0043302937,0.0119412225,0.06452148,-0.056933567,-0.06198931,-0.029026132,-0.012684002,0.00037236742,0.06371563,-0.0009804117,0.06946187,-0.029890833,-0.0034658958,-0.0010563349,-0.026871307,0.0026246866,-0.06704654,0.01248383,-0.030487522,-0.00877022,-0.04251179,-0.026716316,0.035168882,0.043788556,0.02267825,0.017635845,-0.02127659,-0.04999332,-0.06198291,-0.03309118,0.0004922415,-0.061819095,-0.00854508,0.013960453,0.056445144,0.05629677,-0.007157058,-0.06533011,-0.028046597,-0.048182372,-0.06755732,-0.018298991,-0.022898266,0.030522378,0.036447156,-0.045613512,-0.016853776,0.057579845,-0.0023242976,-0.04790968,0.03515893,0.06916405,0.040365793,-0.04429286,-0.0016101277,0.0063747787,0.0074193124,0.069903634,-0.024611654,0.03950614,-0.039298423,-0.06415814,0.03645141,0.049477275,-0.01098803,-0.017816182,-0.049465068,0.05451562,0.008015033,-0.050784256,0.054268632,0.043207426,0.020731892,0.06868294,-0.055969045,-0.05039439,-0.028518498,0.06382609,0.021786466,-0.010810229,-0.031833753,0.04006891,-0.049265403,0.06632684,0.018192798,0.00037755148,0.0021948647,-0.015426278,-0.054779634,-0.0692666,0.009587051,-0.01984659,0.0351637,0.0029758206,0.052200425,0.024106624,0.06951899,0.063830405,0.05701458,0.068109386,-0.0031911319,0.034270253,-0.048767235,-0.021140447,0.05927105,0.063362725,-0.045431126,8.992452e-05,-0.06850215,-0.05457174,-0.02156113,0.065114744,-0.038074866,-0.04481318,-0.019130338,-0.016567422,-0.025261836,0.009289807,0.015182678,0.052044373,0.051370673,0.008864621,0.028513499,0.02657777,0.02832522,-0.048634067,-0.05804939,-0.026584294,0.05849649,-0.054510865,0.037073802,-0.056318376,0.00076768803,0.038883362,-0.0075429208,0.06938172,0.00555541,-0.05390202,-0.05313983,0.013514616,-0.049259722,-0.069821365,0.01033869,0.005091719,0.035812262,-0.050543617,0.019743979,-0.05028775,-0.028350938,-0.061028555,0.0013062742,0.05286927,-0.03362528,-0.02869656,-0.012689767,0.025980296,-0.060144145,0.05667448,-0.010469666,-0.041869767,-0.0132303685,-0.0024557116,-0.029854469,-0.02414792,-0.06329653,0.017285662,0.045171645,-0.05140628,0.041858524,0.07040378,-0.04191505,0.009716939,-0.010288738,0.060657147,0.0319902,-0.05177203,-0.04524492,-0.042462453,0.004106536,-0.0038108255,-0.010773637,-0.059380386,0.008951907,-0.00010138846,0.033558097,-0.059431955,0.016094651,-0.06315033,-0.0070972685,-0.025428139,-0.0052551473,-0.048630856,-0.062308386,-0.034231134,-0.04429993,0.014565808,-0.038082663,-0.020878471,-0.0015998523,0.032227784,-0.056686956,0.06519746,-0.0041058785,0.010165576,0.058945302,-0.044069085,0.019415233,-0.034393728,0.06466203,0.034035057,-0.015979389,0.022996332,0.037983205,-0.066809766,0.037014578,0.046600137,0.026107732,-0.05658068,0.023018098,0.052525595,0.029198723,0.03544168,0.0023712998,-0.069176845,0.01301756,0.036085922,0.023831457,0.05164686,0.03767083,0.03308048,-0.03504884,0.051508687,0.008193255,-0.059969656,-0.06522029,-0.010773274,-0.01617844,-0.024779566,-0.023426492,-0.05173285,-0.03803084,-0.05854582,0.052016698,0.05731035,0.03041509,-0.043982346,-0.03559826,-0.03210555,0.06392057,0.025779037,0.031474914,-0.054023977,-0.019718152,0.032281283,0.06606001,0.020212745,0.031666234,-0.03119988,-0.05395219,0.056586396,0.0602323,0.06789375,-0.0021003715,-0.068419315,0.008523922,0.011166151,-0.006012265,-0.0071100723,0.022942755,0.020326262,-0.008552961,0.06221326,-0.04652557,0.028478002,-0.017301576,0.046998627,-0.052594665,0.026710313,0.008080125,0.049877983,0.045683492,0.0696834,0.06516764,0.00845486,0.0026544677,-0.039273456,-0.029000456,-0.02288875,0.0042249267,0.062405087,-0.051115684,-0.051154684,-0.029882647,-0.05582605,0.018032791,-0.008475369,-0.02434993,0.024131466,-0.051036507,0.042152677,0.007142863,-0.039307408,-0.031281535,0.039219312,-0.06493979,-0.016804978,-0.0047380393,0.05313918,-0.06507215,-0.024492707,-0.015800644,-0.020162353,0.019432269,0.037776507,-0.051260516,-0.007511412,0.067048036,0.026888914,-0.06601455,-0.060759068,-0.04646665,0.029162241,0.0075108977,-0.04065357,-0.008444433,-0.055215593,-0.028153017,-0.0642366,-0.033025563,-0.03911055,0.057362057,0.014487398,-0.035145838,0.0029726343,-0.0020973284,-0.006825556,0.0019458948,-0.03330043,-0.060155593,-0.04368408,0.045755826,-0.03250676,0.030366806,-0.0257334,-0.042120088,-0.07061353,-0.04955401,-0.026409326,0.057501286,-0.023091778,-0.032526057,0.056542706,-0.044480816,0.051781934,-0.04126937,0.06782653,-0.0418601,0.05415673,0.021442303,-0.00963912,0.015046754,-0.057107195,0.04700388,0.0629137,0.029312065,0.024099426,0.013232754,0.011805358,0.05789257,0.06144543,0.016323593,-0.006620048,0.009423505,-0.055078972,0.02288875,-0.023562374,0.040755987,0.05964737,0.012070462,0.06478174,0.031723093,0.054134823,0.0067111272,0.06270544,0.033658415,0.010177368,0.04394268,-0.04898888,-0.048259627,-0.023044946,-0.0022277476,0.041173823,-0.0018747931,0.013961499,0.008544338,0.0523385,0.041819952,-0.032528047,0.03419363,-0.052273035,0.029016614,0.02995375,0.045643784,-0.012846841,0.06585086,0.067712605,0.017878324,0.067644425,-0.042989627,-0.017911755,-0.022147488,0.058099974,0.06378778,0.05068963,0.025947733,0.0038151918,-0.06509993,-0.06896138,-0.05170165,0.055870228,0.035793137,-0.023812523,0.007407621,-0.0018920901,-0.042412788,-0.004258113,0.044487502,0.050401524,0.018241435,-0.047869787,0.0166117,0.038265184,0.046022523,-0.04971808,5.9258473e-06,-0.019453991,0.037432306,0.014081061,-0.05320257,0.029901167,0.024584258,0.0321736,0.016550116,-0.007045512,0.05812355,-0.028284473,0.070307925,0.0342197,0.006263629,-0.008493686,-0.010696753,0.053612936,0.05244769,-0.042497344,0.056614947,0.0071020476,0.033459045,0.06174029,0.06931216,-0.019529948,0.028060723,0.006174396,-0.061476104,0.0046506943,-0.030438758,-0.041379247,0.0046644933,0.033746757,-0.023637159,0.019211318,-0.068138964,-0.057346676,0.06346584,0.018929137,-0.040935062,0.04785392,0.026544768,-0.061187617,0.010015794,-0.029774517,0.037859328,0.011089697,0.0045091314,0.037129182,-0.051272657,-0.045874428,0.035564423,0.013830742,0.044221908,0.04211932,0.06627332,-0.034053035,0.06355986,-0.06392231,0.002736696,-0.067813024,-0.069315344,-0.0113153,0.07022239,0.01902181,0.01417144,-0.024387432,0.03699572,0.055393495,-0.0702672,-0.04513202,-0.038744815,0.012188372,0.039370224,-0.0544044,0.019178402,0.06619447,0.06024121,0.03504191,-0.062504075,0.00829654,-0.008845342,0.007555725,-0.019732945,-0.06355537,-0.054048456,-0.061870255,0.06259586,-0.035370473,0.06518141,-0.037695374,0.0117184175,0.007686085,-0.031423125,-0.06455486,-0.008249513,-0.035349112,0.034372807,0.0026108373,0.017756468,-0.041815676,-0.0038101175,-0.06489314,0.060288314,0.051591866,0.0033419754,-0.037193745,-0.053777646,-0.026560245,-0.012534583,0.02279723,-0.055085354,0.0036683944,0.00025823375,-0.053803515,-0.0026984185,-0.007108909,0.07019211,-0.039897677,-0.0045241695,-0.04175475,-0.03230631,-0.04319672,-0.05090123,-0.014885264,0.047546636,0.011684742,0.049809832,-0.009275013,0.011340116,0.009739151,-0.024202188,0.009143144,-0.017528184,0.047124766,-0.038730223,0.061899614,0.013732616,-0.050137125,0.035276376,0.03379498,-0.033550587,-0.0153745385,-0.04213852,-0.03713394,-0.070688404,0.03425927,0.0016283689,0.045631956,-0.014228717,0.059256263,-0.05814484,0.051678166,-0.019962233,-0.038387965,0.011800562,0.03281146,-0.024137998,0.05919698,0.050523385,0.04045301,0.06064218,-0.0069613615,0.0354161,0.041027438,0.044118606,0.028036784,-0.003553578,0.058681,-0.044116296,0.006256388,-0.06868124,0.056444168,-0.034478594,-0.047606327,-0.061282575,-0.043362517,0.042375505,0.067637,0.037226964,-0.03506823,0.0029980657,-0.017506722,-0.061390884,0.0047772867,-0.060921133,0.0496072,0.039334603,0.05408669,0.021995515,0.0440184,0.0030754725,0.05001523,0.044982903,-0.06347553,-0.01229164,-0.050124414,0.062154684,0.045243144,-0.020092458,0.0069633005,-0.057776283,-0.056778982,-0.013313743,0.060753666,0.024288319,-0.070092686,0.001390964,-0.017295735,-0.02815488,0.012899836,-0.016984185,-0.034107827,0.008386001,-0.05910814,-0.04600408,-0.015146002,0.052273877,0.0013353218,0.027400738,-0.058353208,-0.05220872,-0.042070244,0.023872845,-0.06297243,0.060460854,0.052439794,0.02194906,0.035605878,0.00725043,-0.004647078,-0.021009505,-0.02951758,0.03986619,0.01004958,-0.01340017,-0.032486934,0.037354138,0.013370246,-0.0004843179,-0.05258847,0.006567103,0.03723043,-0.040591978,-0.047964927,-0.022768522,0.025704606,-0.01329466,0.06886502,0.053095944,-0.02599579,0.05187973,0.017227078,0.03999645,0.043349445,-0.06853984,-0.04391294,0.02024143,-0.0126513885,0.05420235,0.06979905,-0.031180087,0.02248038,-0.0031246748,-0.00033678705,0.024522403,-0.050218605,0.02260012,0.008223685,0.031268295,0.067795366,0.064042605,0.050934967,0.0017257618,0.0007132511,-0.009523418,0.042881563,0.038903642,0.0396656,-0.05363861,0.06593268,-0.027669534,-0.007021514,-0.027015517,-0.04143157,0.044387866,0.06907087,-0.048601016,-0.07011778,-0.005535011,0.05416987,-0.021834977,0.03274528,0.052861303,0.027561469,-0.05025084,0.028778173,-0.01646084,0.00020292866,0.011291099,0.044927575,0.0034324815,-0.03580674,-0.009208598,-0.013298865,0.062656775,-0.06708488,0.069923185,-0.008052569,-0.05597632,-0.047363847,0.06115524,0.048750546,0.050860275,-0.01662915,0.024724776,0.047235165,0.009257808,-0.06357608,-0.009788117,0.018949173,0.019720174,-0.05776173,-0.06489889,0.061746314,0.022628324,0.06551969,-0.044278048,-0.03250316,-0.0073431362,-0.046528764,-0.008434318,-0.05892205,-0.068240434,-0.0023096811,0.014066562,-0.07007359,0.03568288,0.017680308,0.052459434,-0.0011039778,-0.05550243,0.026599122,-0.021844089,0.019019863,0.017817168,0.061335325,-0.029906401,-0.05123553,0.03802765,-0.015061683,0.0664544,0.0533561,0.03900571,-0.06530689,-0.0042590406,-0.00936449,0.060697105,-0.0526233,-0.017830115,0.04785356,-0.01562377,0.013344797,0.008317765,-0.038913283,-0.02796972,0.024055846,-0.04880538,0.00770554,0.060199812,-0.042068113,-0.030476682,0.0021120545,0.048186585,-0.010361457,-0.024298595,-0.06417498,-0.00786177,0.0705619,-0.033332452,-0.068982214,-0.05647817,0.031045487,-0.0063567986,0.056975883,0.019153662,-0.04887718,0.036818467,-0.012196295,0.041143324,-0.052822404,0.059495397,0.04461208,0.012013538,-0.069168545,0.032994628,0.05625502,-0.020386988,-0.059782516,0.059950825,0.05125535,0.0009124625,-0.02145912,-0.04125525,-0.038181692,-0.016697234,0.023941206,0.06593215,0.034564726,0.050965574,-0.057056982,-0.0008968344,0.0019576875,-0.006401146,-0.028189061,0.037962377,-0.029339207,0.020845292,0.014147846,-0.0211326,-0.025823055,0.048944015,-0.047681525,-0.020427356,-0.066241294,-0.040085804,-0.0012518205,-0.02782116,-0.045605462,-0.05147776,0.06314901,-0.04417708,0.04303082,0.040005405,0.0049657505,0.049211387,-0.005855167,-0.038554538,0.007183585,0.0702388,0.048168086,-0.04215151,-0.012896987,-0.03409535,0.022036405,0.0466842,0.00023197627,0.05769067,0.014533263,0.018456375,-0.048576932,-0.009667198,0.049327318,-0.04112062,0.023719683,0.059278086,-0.045768537,0.053212732,-0.05356342,-0.008327299,-0.052492063,0.02586554,-0.02110206,-0.057342738,-0.06847523,0.06793918,-0.014566002,0.06434308,0.013506953,0.03501215,0.02957828,-0.03694293,-0.012930721,-0.061561268,0.04171391,0.03136776,-0.020421851,-0.06673443,-0.03758587,-0.0322475,-0.063544974,-0.0096057225,-0.014408491,0.053666495,-0.0012261868,0.061168212,-0.061859623,0.03119752,0.026264232,-0.05547553,-0.04371203,0.05855181,-0.02128475,-0.030063896,-0.07047098,0.00070779736,0.024130605,0.07047528,-0.018338878,0.04702366,0.05933514,0.013378877,0.045178067,-0.011800477,0.0109606255,0.03298791,-0.06453381,0.037820064,0.057497643,0.054926038,-0.05385131,0.02044407,0.050892737,-0.0035309452,0.069152534,0.017461263,0.062385675,-0.03917908,0.06586863,-0.06007312,-0.046023678,-0.0100573255,0.04147755,-0.047845036,0.051198274,-0.047976714,0.014248569,0.031030197,-0.068826206,0.045593627,0.020085638,0.024000945,-0.03933973,-0.05436715,-0.027998371,0.0066757663,-0.051964216,0.0039765215,0.021606145,-0.055514585,-0.016736573,0.055932455,0.064671904,-0.030531894,-0.021045262,0.002653962,-0.069913335,0.03976981,0.06867043,-0.016290922,0.004956832,0.046108536,-0.021128831,-0.039995834,0.02545217,0.043358184,-0.058678936,-0.05220616,-0.04027386,-0.053383935,-0.031775497,-0.021465905,0.012710723,-0.057994284,0.0015654521,-0.060841203,0.01849274,-0.06934044,0.027485866,-0.06282572,-0.0010624547,-0.006181215,-0.05252365,0.0703817,-0.010403621,0.066450745,-0.06925692,0.065917686,-0.069824375,0.0038523064,0.0048927437,-0.0659689,0.021544585,0.057971805,0.03317275,-0.0011335649,-0.039142437,-0.050066918,-0.0095826425,-0.059450638,-0.037051547,0.0015799253,-0.011067266,0.03747284,-0.026090123,-0.05400293,-0.0634274,-0.05630092,-0.0028952863,-0.041877337,0.0051551415,0.009646276,-0.030666647,-0.05279165,-0.011624928,0.04457638,-0.07059568,-0.051802684,0.06176407,0.0021415742,-0.04022959,0.0101575935,-0.013089328,0.054957446,0.042295013,0.019349407,-0.05456408,-0.0015920551,0.047794707,-0.005706279,-0.047302876,0.020505,-0.046101674,0.06983095,0.015540825,0.010327622,-0.046000052,0.024068633,-0.036854815,-0.01870521,-0.0061693294,0.059820745,-0.002517187,0.04966601,0.04716486,0.033154987,-0.019875191,-0.011030724,0.04365338,0.013085291,0.0066477554,0.0592336,-0.017136792,-0.0069381385,0.0012904438,-0.061746653,0.018892579,-0.0044747144,0.04682285,0.04817691,-0.023904083,0.017994985,-0.03325391,-0.056678806,-0.06606353,0.0025450797,0.024692928,0.019854007,-0.023328206,-0.035000592,0.03378457,-0.014476448,-0.05538252,0.046650156,0.0501233,0.011106454,0.04469581,-0.040412843,-0.044550654,0.049833525,0.018790921,0.03604805,-0.0054160305,0.030884774,-0.06483902,-0.06438796,-0.04409074,0.0602454,-0.028183153,0.036366258,-0.067319006,-0.030863674,-0.02441595,0.02826581,-0.007850424,0.034656983,0.03774715,-0.04225705,-0.02967129,-0.05585428,0.00031147365,0.0060690707,-0.06328559,-0.056559708,0.0244264,0.05272167,-0.022375518,0.038217768,-0.01398226,0.012942076,0.027465964,0.04461476,0.043368503,0.031235082,-0.015719023,0.025578856,-0.05779869,0.023434205,0.0433632,0.05659962,-0.066377945,0.024543181,0.054276276,0.0072013624,0.06327675,0.06632197,-0.031054422,0.004040897,-0.023267599,-0.053401794,-0.04610095,-0.06313882,-0.026423698,0.013931296,0.04980693,-0.0015388321